tree
version=v4
num_class=1
num_tree_per_iteration=1
label_index=0
max_feature_idx=20
objective=binary sigmoid:1
feature_names=Column_0 Column_1 Column_2 Column_3 Column_4 Column_5 Column_6 Column_7 Column_8 Column_9 Column_10 Column_11 Column_12 Column_13 Column_14 Column_15 Column_16 Column_17 Column_18 Column_19 Column_20
feature_infos=[0:100] [0.12205400317907333:76.25335693359375] [-0.45547553896903992:1.5112262964248657] [-1505.1708984375:2460.9677734375] none [-2.7807254791259766:4.3585705757141113] [-15.116825103759766:32.495067596435547] [-14.348773956298828:19.030012130737305] [0.060066074132919312:10.855728149414062] [0:100] [0.18186615407466888:80.295242309570312] [-0.563914954662323:1.5756500959396362] [-2878.819580078125:2477.95751953125] [-3.0172175437222009e-15:1.2824862326906317e-14] [-17.786800384521484:28.827825546264648] [2.1621620655059814:98.130844116210938] [0.86518192291259766:127.46079254150391] [-0.45377683639526367:1.5720065832138062] [-6408.97021484375:3146.491943359375] [-0.00022247087326832116:0.0024109776131808758] [0:1]
tree_sizes=6898 7077 7076 7135 7065 7059 7073 7073 7107 7068 7110 7088 7083 7088 7101 7081 7041 7125 7076 7120 7073 7079 7136 7043 7082 7030 7120 7094 7091 7032 7080 7063 7129 7055 7068 7061 7020 7117 7051 7110 7092 7111 7042 7069 7069 7108 7079 7093 7096 7079 7079 7092 7074 7110 7050 7042 7106 7105 7054 7093 7104 7063 7081 7096 7085 7034 7034 7013 7016 7050 7058 7068 7096 6975 7128 7087 7023 7085 7070 7062 7025 7074 7055 7035 7028 7037 7057 7089 7060 7086 7056 7028 7093 7038 7036 7063 7084 7084 7060 7054 7081 7129 7077 7033 7087 6992 7094 7095 7022 6952 7048 7025 6973 7046 7113 6982 7027 7028 7026 6993 7064 7043 6986 7030 7023 7023 7062 6966 7057 7067 7100 6923 7070 7066 6988 6982 7061 7027 7004 6993 7050 7000 7109 7009 7037 7017 7084 7053 7060 7065 7041 7055 7119 7067 7021 7002 7121 7095 7007 7038 7059 7083 7069 7029 7029 7061 7027 7067 7029 7025 6968 7068 7034 6905 7130 7102 7040 6986 7039 7089 6857 7053 7046 7051 7060 6933 6996 6989 7015 6996 7119 6945 6960 6956 7022 6975 6964 7047 7029 7065 7072 6986 7004 6918 7044 7052 6973 7059 7024 7006 6971 6911 6983 7015 7038 6962 7006 7080 6995 7010 7052 6941 7044 6937 7031 7033 7019 6680 6961 7002 6931 7037 6950 5849 7078 7025 7040 7003 6975 6996 6964 7002 7079 6470 7076 7064 7090 7013 7058 6980 6591 7047 7038 7041 6955 6998 7012 7069 6992 6969 6959 6935 6944 6989 7057 6981 6988 7076 6989 7019 6988 6947 6964 6959 6886 7063 7067 7038 6976 6978 7002 6978 7066 6946 6982 7059 7023 6513 7039 7064 6951 6986 7029 7007 7046 7022 7003 6071 6998 6999

Tree=0
num_leaves=63
num_cat=0
split_feature=8 19 9 11 11 15 8 13 8 13 12 14 17 11 19 8 10 1 10 18 13 1 19 1 15 17 18 19 14 14 15 15 1 7 15 15 1 17 0 9 12 14 11 10 15 14 10 10 11 15 13 12 14 9 0 19 18 18 7 19 9 13
split_gain=2116.27 444.592 382.039 347.106 322.588 244.888 195.251 222.446 176.353 163.961 148.01 176.625 139.881 135.151 154.498 125.117 147.021 122.725 122.347 107.196 105.971 100.322 100.224 97.2449 95.3434 129.466 98.9045 89.4973 85.6226 84.1461 83.7558 83.5539 81.3803 75.8624 75.0471 76.0819 74.4343 74.0917 73.0184 73.0164 71.2849 168.517 67.7867 66.2147 65.9944 132.954 81.0151 64.9377 62.3043 60.7219 57.9018 65.7774 69.3476 59.2608 57.6219 56.4782 55.487 54.4772 54.0749 54.0493 61.9388 51.5235
threshold=0.56305569410324108 -1.0000000180025095e-35 20.024600028991703 0.91157159209251415 0.17188834398984912 45.351409912109382 0.41879563033580786 8.4797502915548442e-26 1.1130643486976626 1.3589914296674209e-34 0.017458234913647178 -1.3305467367172239 1.0169084072113039 0.23906140029430392 2.0380951028647777e-26 1.1473164558410647 8.5469493865966815 3.1383582353591923 8.8684620857238787 -9.7323384284973127 3.1367212707086706e-26 2.9467952251434331 1.5892764438353949e-32 1.3886870741844179 32.973297119140632 0.1414296552538872 -0.0028345588361844416 -2.9334396872580884e-32 0.31762471795082098 0.35713243484497076 70.457622528076186 74.393917083740249 4.1982474327087411 -0.84305459260940541 79.341850280761733 24.52630710601807 0.94713628292083751 0.15570577979087832 22.232107162475589 78.577053070068374 0.36997058987617498 -0.72094339132308949 0.90002018213272106 2.2399355173110966 59.294939041137702 0.082995843142271056 8.3003463745117205 13.040743350982668 0.33277328312397009 81.124546051025405 8.1082345842375365e-25 -0.0017469117883592842 2.0276921987533574 81.827896118164077 41.893121719360359 1.750710378790841e-27 -0.014805146958678959 10.057559013366701 -1.7360144853591917 -1.1685197524919794e-25 66.672050476074233 1.0278408468166754e-26
decision_type=2 2 2 2 2 2 2 2 2 2 2 2 2 2 2 2 2 2 2 2 2 2 2 2 2 2 2 2 2 2 2 2 2 2 2 2 2 2 2 2 2 2 2 2 2 2 2 2 2 2 2 2 2 2 2 2 2 2 2 2 2 2
left_child=2 17 20 4 15 8 10 13 9 -6 11 23 39 31 27 16 37 50 19 -13 24 -5 57 54 -1 32 33 -15 36 -16 -28 47 58 -27 35 -30 42 -3 -18 -7 61 -42 -12 -38 45 46 -9 -8 -10 -36 51 -2 -53 -54 -4 -33 -20 -17 -26 -43 -61 -19
right_child=1 3 6 21 5 12 7 44 48 -11 28 18 -14 14 29 22 38 40 56 -21 -22 -23 -24 -25 25 26 30 -29 34 -31 -32 55 -34 -35 49 -37 43 -39 -40 -41 41 59 -44 -45 -46 -47 -48 -49 -50 -51 -52 52 53 -55 -56 -57 -58 -59 -60 60 -62 -63
leaf_value=-0.30064202678260304 -0.30429828611212867 -0.31292267674793345 -0.32084474016171421 -0.3049754571514785 -0.29970868822194202 -0.30546856395983552 -0.30490422902611386 -0.31791598661775777 -0.31482972478105509 -0.31937686384319602 -0.29729693652927802 -0.30381560211761821 -0.31270862898343349 -0.30246679545691774 -0.3020600266941153 -0.3218813132847948 -0.28357738036176555 -0.31757362259199595 -0.30984810289225662 -0.29891400075876362 -0.32003001228983019 -0.31521137460117282 -0.30167413655972464 -0.30118918629630481 -0.29953470252720815 -0.32735502432876928 -0.30864840249013831 -0.29899834950039866 -0.28218932289074261 -0.3091740003482612 -0.26083144174874506 -0.27638724265150594 -0.26781847574959822 -0.28327073236627298 -0.27911906813669779 -0.3048937430852463 -0.3067287353918382 -0.30720343789724991 -0.30281862474542093 -0.28953792563456182 -0.2664156136737546 -0.32004231355142776 -0.31452762734800604 -0.30015826649480531 -0.32361265890079005 -0.29364978653824181 -0.27105401736634754 -0.26240056379342086 -0.30456329027749779 -0.30758661028661172 -0.3245991159433908 -0.31294065685299471 -0.30570576494928892 -0.27674415849700834 -0.30775331134833317 -0.32286593842997402 -0.28387800469689628 -0.29547745406925319 -0.32060941932246007 -0.32066274667347683 -0.28984536284288215 -0.33423029461667864
leaf_weight=662.72019557654858 717.94687919318676 1832.9882751405239 167.63497656583786 475.04722034931183 6631.8449054509401 7801.3798927515745 5262.1743018627167 355.79668469727039 448.41134335100651 173.98848873376846 2483.2458045184612 1873.7973686158657 1146.3202237337828 4213.8447852879763 1487.6993186175823 595.03085720539093 88.216072857379913 1577.8703247904778 37.143609866499901 37528.241619393229 281.26509910821915 1976.6753987520933 138.06670744717121 1026.5809520632029 54.004853680729866 18.083073303103447 860.41217303276062 10128.231539398432 59.869633913040161 1202.7687350809574 14.906316936016081 65.001316726207733 12.951390147209166 114.36321909725666 84.550584971904755 4242.4355927556753 1010.4528070986271 1791.6904431730509 746.2933179885149 116.80687780678272 34.699950948357582 173.74412290751934 94.81395161151886 1561.7421716153622 179.60890358686447 149.79626813530922 15.395048677921293 14.417585238814352 500.21690326929092 46.429512307047844 103.85548849403858 1460.0859810709953 123.40475633740425 36.654877856373787 680.07017239928246 12.46265861392021 288.59607216715813 32.989390224218369 495.81831987202168 43.252756342291832 65.734414502978325 77.952708020806313
leaf_count=1902 2148 6011 594 1432 18827 23645 15850 1226 1499 608 6850 5576 3751 12350 4340 2129 203 5419 118 105544 989 6633 401 2965 153 68 2699 28513 135 3794 23 134 23 262 182 12777 3105 5534 2196 292 60 611 316 4457 653 395 29 23 1501 144 381 4789 375 76 2113 45 667 89 1753 153 165 311
internal_value=-0.30253 -0.307142 -0.300794 -0.306089 -0.305295 -0.303947 -0.300534 -0.302061 -0.301338 -0.300211 -0.299845 -0.299329 -0.306179 -0.301714 -0.300842 -0.309636 -0.308353 -0.312984 -0.299046 -0.299147 -0.308461 -0.313228 -0.317103 -0.305329 -0.307004 -0.309688 -0.305397 -0.300017 -0.302086 -0.30524 -0.307834 -0.304485 -0.317372 -0.28929 -0.304124 -0.304578 -0.300332 -0.310096 -0.300785 -0.305234 -0.316693 -0.308011 -0.297931 -0.302739 -0.313158 -0.309554 -0.315972 -0.304788 -0.309416 -0.28921 -0.309987 -0.309338 -0.311571 -0.299073 -0.310342 -0.283865 -0.286839 -0.320494 -0.318539 -0.313117 -0.302076 -0.318358
internal_weight=105698 28911.2 76787.3 24496 22044.2 16819 74272.8 23087.2 7754.46 6805.83 51185.6 41602.1 9064.51 22386.6 17032.5 5225.28 4459.19 4415.2 39727.8 39402 2514.52 2451.72 766.087 1874.29 2233.26 1570.54 1007.76 14342.1 9583.54 2690.47 875.318 5354.06 562.775 132.446 4433.29 4302.31 5150.25 3624.68 834.509 7918.19 1973.25 317.431 2578.06 2572.19 700.597 520.988 371.192 5276.59 948.628 130.98 2441.95 2338.09 1620.15 160.06 847.705 77.464 325.74 628.02 549.823 282.731 108.987 1655.82
internal_count=310006 89239 220767 74751 66686 50123 212895 67352 22435 19435 145543 117577 27688 65049 48997 16563 13944 14488 111905 111120 7872 8065 2619 5672 6883 4981 3052 40863 27966 8134 2722 16052 1929 330 13238 12912 14728 11545 2399 23937 6719 989 7166 7562 2303 1650 1255 15873 3000 326 7769 7388 5240 451 2707 179 785 2218 1906 929 318 5730
is_linear=0
shrinkage=1


Tree=1
num_leaves=63
num_cat=0
split_feature=8 16 19 1 11 16 17 17 9 19 3 7 14 17 1 17 16 11 1 19 18 16 16 11 8 9 0 19 18 10 16 2 8 18 8 10 14 10 9 11 9 8 19 1 18 18 11 1 11 18 17 11 16 7 19 11 7 8 16 17 16 9
split_gain=2034.91 407.97 404.745 336.55 290.2 272.694 309.779 242.979 236.796 188.945 172.94 172.036 159.212 155.192 138.695 141.373 131.761 131.435 125.32 124.378 123.23 121.432 121.023 109.981 115.16 109.478 119.04 108.019 104.306 108.427 98.9646 98.1614 96.9783 96.558 94.0988 92.7965 86.6472 86.5881 82.4947 76.4558 136.624 77.0309 75.5066 71.7022 71.4941 112.129 71.2088 70.7858 68.9748 67.0127 105.97 75.9242 66.9735 76.2526 66.9098 64.2371 141.367 63.3339 60.4576 119.334 84.4254 68.4424
threshold=0.54618728160858165 8.514773368835451 -1.0000000180025095e-35 3.2826710939407353 0.73953586816787731 13.299697399139406 0.2959918230772019 0.13764932751655581 20.024600028991703 4.0174780796609075e-32 -0.0038133823545649643 -0.63760671019554127 0.90384432673454296 0.19456920772790912 2.0602017641067509 0.34713327884674078 7.9325513839721689 0.15325364470481875 2.760064005851746 1.615807385771765e-35 -0.034750001505017274 3.6545562744140629 4.5938472747802743 -0.098554097115993486 0.91094449162483226 71.054771423339858 70.003948211669936 4.0743865008774073e-16 -0.0070030882488936177 9.7906365394592303 8.608182907104494 0.45189383625984197 0.27370902895927435 -0.020635294727981087 0.57331010699272167 8.4215579032897967 0.75360888242721569 3.57422947883606 85.80649566650392 0.58449164032936107 38.422916412353523 0.39995577931404119 -3.0434821560622046e-16 2.4697203636169438 -1.3274412155151365 -0.86616176366806019 0.1226433962583542 3.4397985935211186 0.77564096450805675 -0.0031195587944239374 1.0169084072113039 0.88881212472915661 12.758656501770021 -1.056691527366638 1.1243913976734386e-15 0.2526292502880097 -1.3751699328422544 0.42857824265956884 13.299697399139406 0.71202608942985546 6.384202480316163 31.410670280456547
decision_type=2 2 2 2 2 2 2 2 2 2 2 2 2 2 2 2 2 2 2 2 2 2 2 2 2 2 2 2 2 2 2 2 2 2 2 2 2 2 2 2 2 2 2 2 2 2 2 2 2 2 2 2 2 2 2 2 2 2 2 2 2 2
left_child=1 8 18 5 10 7 17 27 33 11 23 30 13 22 15 36 21 -7 58 -18 48 -15 54 -5 -25 -22 -27 -4 37 -30 -3 -12 -24 35 -20 47 -13 -9 -17 40 52 -42 -36 -19 -32 -46 -33 -1 -14 -6 51 -51 53 -11 -10 -44 -57 -35 60 -60 -2 -62
right_child=2 9 3 4 49 6 -8 28 12 39 31 14 20 16 -16 38 19 43 34 -21 25 -23 32 24 -26 26 -28 -29 29 -31 44 46 -34 57 42 -37 -38 -39 -40 -41 41 -43 55 -45 45 -47 -48 -49 -50 50 -52 -53 -54 -55 -56 56 -58 -59 59 -61 61 -63
leaf_value=-0.0035891173129759678 -0.0020052883182860456 0.018988218907626111 -0.0082372438867586925 -0.018107159858467066 -0.014650860351390649 -0.0048490712458849079 -0.0021817048662909544 -0.0039298426938501382 -0.0052736686686259953 -0.019379363382650863 -0.0041707411445679457 0.0084083808206493679 -0.00060061224755609882 5.2435986028145928e-05 0.0022089440999211439 0.0048690933840344819 0.00054688224923627187 0.013079233038521834 -0.00094368393692700555 -0.0090777998837671455 -0.0034519368040635181 0.0029593015556919323 0.0049240941421404812 -0.0022792174373368053 -0.0099270950839711099 0.0007441515971179178 0.014909602562201224 -0.024002620841816237 -0.0037152306698363937 0.010353362801960739 -0.012968586795499422 -0.015923031735886183 -0.00074728312527598941 -0.0067499778711050708 -0.021230973555451983 0.031291788675237873 0.015837997986208788 0.0051085679038175829 -0.030274704627856766 -0.0028871713230897147 0.010168380507934253 0.001673279392533466 -0.019631403737200605 0.0054526098027170809 0.030401618458726288 0.00035255972450252835 0.0019036245714123803 0.02649169217771832 -0.012295996853692719 0.00040261522963940698 -0.013861417422987216 -0.0090864597233510057 0.0052417548832922609 -0.0028686544481259413 0.0080281258107402047 0.02134522691747074 -0.011469497627416739 -0.017524708429307593 0.0072873925280278994 -0.012266341482247849 -0.02390940826098353 -0.0092822412511520055
leaf_weight=364.14785765111446 629.63880787789822 116.06695768237114 1480.7081564515829 337.47355607151985 1120.4604023844004 279.5266696959734 2500.0624224543571 616.90721479058266 2481.0990755409002 129.17305295169353 2732.0257782042027 4964.3340806216002 289.59420457482338 7237.7740284204483 2802.1186865568161 4710.7897217124701 1790.1178231686354 1142.5597574412823 248.81114965677261 767.26713126897812 2422.9562017321587 27933.559526711702 1579.5589588433504 1579.0132654607296 1571.2168136686087 1338.4717567414045 288.43255877494812 196.96564593911171 5064.3526884764433 229.03755773603916 157.06651635468006 92.96731786429882 5099.9584512710571 1079.2167911827564 450.91838453710079 39.077972233295441 718.80117416381836 1355.6123109608889 26.86946114897728 1630.945402726531 913.40274639427662 801.71402750909328 365.08076737821102 867.46027718484402 50.600400656461716 2708.7411731481552 2496.8460208624601 34.233247205615044 664.63956314325333 571.68374481797218 948.43793919682503 822.59612959623337 340.20151457190514 836.15022023022175 161.08238424360752 54.497990190982819 1442.2158640027046 273.51903373003006 322.83757409453392 203.56279209256172 145.20443485677242 1077.2695583701134
leaf_count=1113 1893 267 4754 1197 3842 867 7520 1891 7709 463 8405 13152 855 21196 8005 13038 5213 2850 739 2481 7381 79102 4370 4757 5141 3890 702 737 15494 594 529 323 15079 3418 1650 74 1726 3746 106 4940 2366 2307 1315 2385 97 7913 7167 70 2222 1670 3232 2672 938 2531 429 121 4801 965 870 682 543 3501
internal_value=-5.25583e-08 0.00178545 -0.00431304 -0.00331615 -0.00572292 -0.00116534 0.00268579 -0.00322775 0.000864776 0.00415661 -0.00379464 0.00517368 0.00111074 0.00147146 0.006159 0.00722116 0.0020424 0.00800083 -0.00956099 -0.00234072 -0.00228089 0.00236111 -0.000839388 -0.00725613 -0.00609369 -0.000757421 0.00325553 -0.0100882 -0.00164371 -0.0031065 0.000877271 -0.00152613 0.000593873 -0.00628718 -0.0126306 0.00188074 0.00934808 0.0022818 0.00466978 0.00060234 0.00248644 0.00619743 -0.0138879 0.00978783 0.000156493 0.000903595 0.0012637 -0.00100425 -0.00874664 -0.010628 -0.008704 -0.00519574 -0.00238882 -0.00507801 -0.00446272 -0.0121094 -0.0102747 -0.0089286 -0.00625524 -0.000274176 -0.00795515 -0.0110196
internal_weight=105698 74751.7 30946 26005.9 12272.7 13733.2 4789.61 8943.58 53844.7 20907 8809.54 16255.4 52054.5 47050.4 13222.9 10420.8 37728.7 2289.55 4940.04 2557.38 5004.09 35171.3 9321.7 3487.7 3150.23 4049.86 1626.9 1677.67 7265.91 5293.39 3032.48 5321.84 6679.52 1790.19 2561.52 437.459 5683.14 1972.52 4737.66 4651.59 3020.64 1715.12 2312.71 2010.02 2916.41 2759.34 2589.81 398.381 954.234 3463.18 2342.72 1394.28 1305.52 965.323 2642.18 1861.79 1496.71 1352.74 2378.51 526.4 1852.11 1222.47
internal_count=310006 214647 95359 79244 38406 40838 13622 27216 156269 58378 26990 44833 150629 135579 36027 28022 107992 6102 16115 7694 15050 100298 27587 11095 9898 11973 4592 5491 21725 16088 8806 15895 19449 5640 8626 1257 14878 5637 13144 13545 8605 4673 7887 5235 8539 8010 7490 1183 3077 11416 7574 4342 3932 2994 8138 6237 4922 4383 7489 1552 5937 4044
is_linear=0
shrinkage=0.02


Tree=2
num_leaves=63
num_cat=0
split_feature=8 17 16 16 13 8 17 8 9 15 8 11 14 11 15 15 11 17 11 16 8 14 16 14 18 9 16 18 13 16 18 3 9 17 17 18 14 10 13 8 16 18 15 12 15 10 15 11 14 14 8 10 11 8 9 11 14 18 0 8 15 18
split_gain=1955.9 367.159 364.205 358.345 317.691 268.808 354.799 252.436 230.64 219.292 188.886 174.27 171.424 164.183 163.336 160.463 138.599 133.614 117.509 117.297 159.379 124.902 112.944 122.103 109.059 110.347 106.956 150.639 106.824 102.162 99.6302 115.36 97.6167 93.1612 93.1322 92.5313 89.5003 89.1902 87.7657 86.0534 107.219 104.056 92.5088 82.5321 75.4924 73.9296 72.2282 71.0959 69.0669 62.8963 62.4623 61.7599 61.7074 61.1693 60.7114 84.8359 59.2061 59.1244 58.8173 58.6891 58.4639 57.3547
threshold=0.56305569410324108 1.0169084072113039 8.514773368835451 13.711561203002931 2.0815101803440422e-34 1.1130643486976626 0.29910030961036688 0.88083016872406017 20.024600028991703 37.386474609375007 0.40186893939971929 0.15325364470481875 0.90384432673454296 0.23278194665908816 22.778544425964359 32.477258682250984 0.33978021144866949 0.3839001208543778 0.29157111048698431 3.6545562744140629 0.22720771282911303 -1.2544016838073728 24.534641265869144 0.53953081369400036 -0.034750001505017274 71.054771423339858 11.086057662963869 -14.17294120788574 8.4797502915548442e-26 8.5649309158325213 0.0086433822289109247 -0.23389411717653272 31.16049957275391 0.12651205062866214 0.15897183120250705 -0.020635294727981087 -1.0443715453147886 8.4215579032897967 2.1312404609863228e-20 0.32095357775688177 3.6545562744140629 -3.3149265050888057 13.935641288757326 0.0031502940692007546 59.502065658569343 8.8684620857238787 78.347080230712905 0.91157159209251415 4.4660449028015146 -1.2774002552032468 0.50228354334831249 9.7906365394592303 0.77564096450805675 0.68935889005661022 75.095432281494155 0.91743540763854992 -0.84177502989768971 -0.30711323022842402 19.050167083740238 0.42857824265956884 16.603617668151859 -0.089498531073331819
decision_type=2 2 2 2 2 2 2 2 2 2 2 2 2 2 2 2 2 2 2 2 2 2 2 2 2 2 2 2 2 2 2 2 2 2 2 2 2 2 2 2 2 2 2 2 2 2 2 2 2 2 2 2 2 2 2 2 2 2 2 2 2 2
left_child=2 3 8 4 7 6 11 16 35 39 26 45 19 28 -13 18 51 -18 -7 21 -21 -11 29 -24 52 -26 27 -4 46 -15 31 -8 -9 -6 36 37 -29 58 -31 40 -10 -41 -42 -32 59 -5 50 -34 54 -36 -12 -2 -14 -35 -3 -56 57 -28 -1 -37 -43 -20
right_child=1 48 10 5 33 15 30 32 9 12 13 14 24 22 -16 -17 17 -19 61 20 -22 -23 23 -25 25 -27 56 34 -30 38 43 -33 47 53 49 44 -38 -39 -40 41 42 60 -44 -45 -46 -47 -48 -49 -50 -51 -52 -53 -54 -55 55 -57 -58 -59 -60 -61 -62 -63
leaf_value=0.022391017996661967 -0.0069208438479144022 -0.012739208335254402 -0.012782240199414966 -0.0080356715098458178 -0.027445008481869596 -0.017705183444008236 0.015345471078743804 -0.021294515985940753 -0.0093325445485887698 -0.018355142538295486 0.00050882807600895891 0.0014618621816455976 -0.00020760238510097095 0.021711822136539497 0.010917935469029933 -0.0028618983326981202 0.0021932513613324473 -0.0038275104323836711 -0.011233299975794029 0.006406741325243122 0.0020782175819485595 0.00024238995606643422 0.022984808768674928 -0.0068720247755123965 -0.0031488138413597938 0.0034853056495627861 -0.013476153455937088 -0.00013704093584238189 -0.018928986499658591 0.0029077816585965388 0.0033855570988547369 -0.0080846315357767391 -0.0075267876018840045 -0.0073172294259275664 -0.0082557041386469542 -0.0074338894443341857 0.012133210250923938 0.030526552968692642 -0.016802195082979934 -0.014017420037947868 -0.021744928435702908 0.015976706071599699 0.00166979824872128 -0.0043212151440469746 0.016046951654140825 0.0048339137278637706 0.026872122603585683 -0.017144509618330236 -0.018844851801443852 0.0038281154847647349 -0.0062016213409468749 0.0036172696616727389 -0.01129084103806418 -0.020162754874118907 0.0026750981512518195 -0.011381615065295005 0.0092216422146067026 0.0049265590613531271 -0.0035472534912706043 -0.017616633643010873 -0.0031367319770198199 0.0049118394627902916
leaf_weight=38.685178533196449 4823.5912758708 1323.4584723263979 204.33843015134335 481.57909305393696 262.75599354505539 637.54474087059498 88.661468133330345 326.9812071621418 424.45234535634518 147.1729848831892 1655.8676366060972 1166.4603530019522 288.10434241592884 114.48655918240547 1955.7398924082518 2164.5366166234016 2056.8557875007391 5206.339476287365 179.3630732446909 3889.3071831464767 27190.514087885618 7809.2834088951349 220.71828179061413 72.881007343530655 2449.2775294482708 1698.2649970799685 78.915658384561539 308.35494728386402 146.0045617967844 8059.0007099807262 1118.8600594848394 1618.0666239857674 1523.4487994015217 326.14139792323112 178.83579306304455 1037.5572611391544 1038.9265070706606 39.254581570625305 91.392395600676537 361.78786453604698 68.710982725024223 65.006590366363525 3810.6534254103899 1104.5311699956656 47.339403137564659 283.74389390647411 35.799273267388344 385.16905057430267 453.86389794945717 4711.8984380215406 834.46001221239567 233.20944839715958 664.15338410437107 271.90710909664631 296.29192362725735 408.54687531292439 3594.2080948352814 606.78192336857319 364.0226869136095 289.59963810443878 4189.297252997756 172.80979064106941
leaf_count=84 15318 4472 686 1549 1021 2262 215 1198 1377 523 4828 3358 847 252 5009 6580 5889 15988 595 10553 77743 22824 476 230 7446 4775 267 906 523 22811 3163 5195 4864 1042 574 3318 2615 74 321 1231 251 156 10946 3411 114 788 72 1360 1628 13178 2622 657 2207 986 847 1364 9396 1678 1113 1028 12722 480
internal_value=-1.10112e-07 -0.00443824 0.00166771 -0.00374651 -0.00571269 -0.000983859 0.00100462 -0.0050145 0.000796709 0.00103663 0.00384483 0.00528862 0.00161467 0.00203213 0.00738513 -0.00591219 -0.00389252 -0.0021225 -0.0125833 0.00206518 0.00261989 -0.000101614 0.00338334 0.0155734 -0.0018338 -0.000432388 0.00574347 0.00411536 -0.00229561 0.00295031 -0.00323295 -0.00686748 -0.0111975 -0.0175187 0.00466888 -0.00621097 0.00932489 0.00174953 0.00268677 -0.00182353 0.000210903 -0.00372034 0.00125508 -0.000442995 -0.00877063 -0.00326427 -0.00133424 -0.00946769 -0.0117922 0.00338626 -0.00173971 -0.00643485 -0.00793762 -0.0131575 -0.010214 -0.00547262 0.00819419 0.00280863 -0.00105555 -0.00965587 -0.00284467 -0.00331095
internal_weight=105696 28870.5 76825.3 26388.3 15416.4 10971.9 7817.64 14555.6 54872.4 53056 21952.9 3887.52 44136.1 11230.6 3122.2 3154.25 12320 7263.2 989.718 39036.3 31079.8 7956.46 8558.48 293.599 5099.8 4147.54 10722.3 6442.35 2672.13 8264.88 3930.12 1706.73 2235.6 860.805 6238.02 1816.46 1347.28 441.962 8150.39 8919.91 4303.82 4616.09 3879.36 2223.39 1374.5 765.323 2526.13 1908.62 2482.16 4890.73 2490.33 5056.8 952.258 598.049 2028.3 704.839 4279.91 685.698 402.708 1327.16 4254.3 352.173
internal_count=310006 89239 220767 80928 48323 32605 22688 45274 159332 153601 61435 10704 126918 32135 8367 9917 37852 21877 3337 111643 88296 23347 24090 706 15275 12221 29300 17959 8045 23384 11984 5410 7422 3049 17273 5731 3521 1271 23132 26683 12574 14109 11197 6574 4460 2337 7522 6224 8311 13752 7450 15975 3054 2028 6683 2211 11341 1945 1197 4346 12878 1075
is_linear=0
shrinkage=0.02


Tree=3
num_leaves=63
num_cat=0
split_feature=8 19 16 1 11 16 15 15 19 11 7 7 11 19 1 18 1 8 16 18 19 3 2 8 18 19 19 6 11 16 8 15 15 15 15 2 1 19 19 12 12 16 15 3 19 11 14 15 15 12 13 19 11 15 11 12 7 1 12 12 11 13
split_gain=1880.92 386.136 375.859 316.611 275.894 252.971 264.298 197.634 179.604 171.23 163.986 157.392 152.556 151.061 127.612 119.764 119.053 107.428 129.103 107.01 105.679 105.366 105.146 178.267 188.627 102.629 142.304 102.065 96.8535 95.3358 89.748 89.6158 92.0947 86.8419 86.5893 85.618 85.9379 84.8344 83.7001 82.9279 82.7608 79.8407 77.8027 77.0826 72.0543 70.3306 77.8729 69.7148 68.9861 146.861 68.858 68.8045 65.6607 64.4368 99.3251 63.1173 67.0275 60.2323 60.1747 60.1519 59.5919 58.9719
threshold=0.54618728160858165 -1.0000000180025095e-35 8.514773368835451 3.2826710939407353 0.86848360300064098 13.299697399139406 37.010215759277351 37.386474609375007 1.0973115750272044e-31 0.33622191846370703 -0.63760671019554127 0.67342570424079906 -0.12316977605223654 1.3834147399822496e-14 2.0602017641067509 -0.034750001505017274 2.760064005851746 0.31015805900096899 4.5938472747802743 -43.328544616699212 -3.096606360848378e-21 -0.0005449117743410169 0.41640241444110876 0.24038855731487277 0.0060487352311611184 4.0174780796609075e-32 -2.9334396872580884e-32 0.064058393239974989 0.13475063443183902 8.608182907104494 0.57331010699272167 83.016128540039077 55.935070037841804 46.37388992309571 64.791213989257827 0.50001662969589245 8.8039865493774432 -1.594630081192677e-12 2.472953982365109e-16 -2.0129411220550533 0.94995588064193737 12.048983573913576 28.455955505371097 -16.628632545471188 -3.0434821560622046e-16 0.58449164032936107 -1.0779891610145567 16.603617668151859 31.873755455017093 -0.0061439706478267899 8.1082345842375365e-25 2.2174711069092305e-12 0.73953586816787731 21.74300575256348 0.2526292502880097 0.040632354095578201 0.10930033400654794 1.0921968221664431 9.4205884124676248e-06 0.61814704537391674 0.88347351551055919 1.3589914296674209e-34
decision_type=2 2 2 2 2 2 2 2 2 2 2 2 2 2 2 2 2 2 2 2 2 2 2 2 2 2 2 2 2 2 2 2 2 2 2 2 2 2 2 2 2 2 2 2 2 2 2 2 2 2 2 2 2 2 2 2 2 2 2 2 2 2
left_child=2 16 7 5 12 9 28 17 10 48 29 22 -5 34 33 60 50 18 21 -19 37 -1 23 -9 -25 26 -24 -17 -7 -4 -18 32 -8 41 -11 36 -14 -20 -29 -31 -15 -12 -30 -22 -32 46 -10 -21 61 -50 59 -27 -37 -46 -55 56 -16 -49 -41 -2 -13 -3
right_child=1 3 8 4 -6 6 31 11 45 13 14 15 35 40 55 27 30 19 20 47 43 -23 25 24 -26 51 -28 38 42 39 44 -33 -34 -35 -36 52 -38 -39 -40 58 -42 -43 -44 -45 53 -47 -48 57 49 -51 -52 -53 -54 54 -56 -57 -58 -59 -60 -61 -62 -63
leaf_value=0.00036316556275769687 -0.0044023653415169927 -0.01037979808212423 0.018531736378552703 -0.016453587332893607 -0.011801028528227933 -0.005609705964669115 -0.0067214413304797242 0.0045458458552124145 -0.0045779035257109647 0.0012833971226611151 0.0065664047973676446 -0.0047261367528673758 -0.0044279136233176157 -0.015127584838770991 -0.00015875062707603155 -0.0038100832395117201 -0.0008656563194014388 -0.018982271619450809 -0.0010531825513363708 0.014262137425967261 0.018662620750168307 -0.013086260968599423 0.0014328627990118107 0.0010212676211779144 -0.0042215295847698436 -0.00048501836124734566 0.0051294762958017538 0.0044410983960750453 0.0052418738640224302 -0.01490947970127718 -0.020706694081733687 -0.018670789489129629 0.0017682960089767808 0.0045462454434448815 -0.0051082555734101162 0.00030079123499192654 -0.014278461176937391 0.017078736942961283 -0.011924661950350227 0.0020285608527007074 0.0061731648399408114 0.011054052755191295 0.012814491384635392 0.0003698832806647557 0.0076838178167607501 -0.0028651217988097033 0.0038239865050717133 -0.0079241435942599657 0.00098313331001155329 -0.0090636611344878 -0.02131490995462226 0.0056071458847313542 -0.0062045107830789792 -0.022342649480331978 -0.010236428027066069 -0.0058339278666970119 0.0064389987916488424 -0.0023914368227202351 -0.0064023006337493426 -0.017156594476016682 -0.015806123414455302 -0.029707090016557452
leaf_weight=494.45443290472031 2102.7553997188807 646.07116909325123 116.4029213488102 383.32799944281578 2273.801426038146 213.72953867912292 789.98344600200653 3629.8764533102512 537.83312290906906 4182.0928960740566 4036.1699938029051 482.14690561592579 5624.4936649054289 420.22281701862812 1183.4837354272604 1875.8365269899368 248.65593914687634 176.81543749570847 152.61318784952164 90.28715842962265 95.346457168459892 440.63753235340118 7551.2204437851906 9841.4924998134375 3806.7353873997927 5047.325465887785 9290.4158009886742 1474.2738060951233 1266.0049189478159 140.62604041397572 448.53049030900002 124.37794281542301 1447.7774756401777 3821.9833835065365 1063.3808173090219 2793.6685445457697 378.07461233437061 318.88091397285461 136.5815269947052 2386.8503666818142 88.291343033313751 2612.0607732236385 949.90162570774555 2741.8235200047493 65.666563212871552 1612.6725106239319 2457.3831241428852 977.59003372490406 943.17994496226311 1519.7245036065578 112.73621274530888 869.24596710503101 797.88005264103413 333.02074128389359 1457.5229555368423 347.08471128344536 1284.2994615137577 4038.6399656385183 394.62026773393154 159.10270072519779 325.07346929609776 69.989442512392998
leaf_count=1447 6511 2131 267 1349 7642 671 2496 10070 1663 12108 10881 1497 17420 1452 3468 5741 739 633 452 221 220 1486 21744 28486 11691 14858 25595 4100 3472 485 1650 444 4174 10582 3313 8177 1299 752 455 6836 242 6643 2365 7991 178 4883 6868 3128 2750 4941 417 2383 2519 1239 4820 1083 3479 12186 1240 561 1133 279
internal_value=-1.65856e-07 -0.0041507 0.0017149 -0.00317696 -0.00551402 -0.00109081 0.00261653 0.000831006 0.0039892 -0.00307949 0.0049735 0.00139266 -0.00408124 -0.00102132 0.00593218 -0.00224626 -0.00928337 -0.00178241 0.000587261 -0.00368582 0.00244175 -0.00597452 0.00178294 0.00060663 -0.000441042 0.00267599 0.00347204 -0.000639112 0.00724791 0.000781926 -0.0122812 -0.00214719 -0.00122879 0.00694854 -1.23411e-05 -0.00358691 -0.00504836 0.0112098 0.00305348 7.48547e-05 -0.0114292 0.00832958 0.00848806 0.000984632 -0.0135128 0.000502258 0.00231531 -0.00315617 -0.00680481 -0.0052162 -0.00605986 0.000410025 -0.00114439 -0.0117744 -0.012488 0.00215174 0.00327489 -0.00346968 0.000832435 -0.00529952 -0.00918813 -0.0122689
internal_weight=105693 30904 74788.8 25976 12251.2 13724.7 4791.77 53857.3 20931.5 8932.95 16323.6 44330.2 9977.44 5753.99 13285.1 4293.91 4927.99 9527.09 4243.76 5283.33 3308.66 935.092 40036.3 17278.1 13648.2 22758.2 16841.6 3486.69 2429.64 3038.5 2553.4 2362.14 2237.76 10470.2 5245.47 9594.12 6002.57 471.494 1610.86 2922.1 508.514 6648.23 2215.91 2837.17 2304.74 4607.89 2995.22 5106.52 3178.97 2462.9 2374.59 5916.57 3591.55 1856.21 1790.54 2814.87 2467.78 5016.23 2781.47 2261.86 807.22 716.061
internal_count=310006 95359 214647 79244 38406 40838 13622 156269 58378 27216 44964 127753 30764 17115 36136 12926 16115 28516 12348 16168 9415 2933 114827 50247 40177 64580 47339 10296 6508 8828 8626 7114 6670 28106 15421 29415 18719 1204 4555 8561 1694 17524 5837 8211 7887 13414 8531 15535 10101 7691 7489 17241 10696 6237 6059 8030 6947 15314 8076 7072 2630 2410
is_linear=0
shrinkage=0.02


Tree=4
num_leaves=63
num_cat=0
split_feature=8 17 9 16 16 8 17 8 8 11 9 8 11 0 7 18 16 11 14 12 16 14 16 18 3 10 9 8 17 10 17 12 14 17 9 7 12 17 10 17 0 20 14 11 17 18 16 8 16 10 16 10 9 11 11 16 17 18 16 14 9 8
split_gain=1807.78 346.242 340.357 336.545 332.043 252.281 332.917 248.595 166.81 162.411 157.024 151.037 138.094 130.761 122.284 189.785 126.441 114.998 109.314 106.811 105.971 116.341 96.7683 96.4287 110.271 93.679 92.5477 89.7734 82.8617 143.649 80.7238 79.5618 78.0018 89.2822 77.7221 107.67 88.1684 76.9648 70.8617 68.1702 66.8836 66.6201 66.3209 65.374 63.6624 88.0062 87.1444 79.6749 87.1637 132.366 62.6556 62.5104 59.2111 80.992 58.7524 58.7446 57.1999 64.1033 56.7669 56.7183 54.9031 52.8358
threshold=0.56305569410324108 1.0169084072113039 20.024600028991703 13.711561203002931 8.514773368835451 1.1130643486976626 0.29910030961036688 0.88083016872406017 0.40186893939971929 0.15325364470481875 38.15918159484864 0.42463377118110662 0.23594034463167193 57.141988754272468 0.35718499124050146 -0.056720588356256478 3.7660540342330937 0.23278194665908816 -1.3040260076522825 0.017458234913647178 24.534641265869144 0.53953081369400036 8.5649309158325213 0.0086433822289109247 -0.23389411717653272 9.0290050506591815 31.16049957275391 0.22720771282911303 0.4117285162210465 9.7906365394592303 0.72193363308906566 -0.00013951765140518543 -1.3568059206008909 0.15897183120250705 71.054771423339858 1.1736510992050173 4.2465147972106942 0.53009089827537548 8.8684620857238787 0.73120075464248668 31.169113159179691 1.0000000180025095e-35 4.4660449028015146 0.91157159209251415 -0.1230289191007614 -0.017955293878912922 4.1680421829223642 0.45218725502491003 7.1199898719787607 4.1657457351684579 8.3246674537658709 4.6197743415832528 75.095432281494155 0.91743540763854992 0.96951064467430126 7.4786114692687997 0.092362400144338622 -0.00051411765161901702 19.882852554321293 2.3501014709472661 58.904241561889656 0.50228354334831249
decision_type=2 2 2 2 2 2 2 2 2 2 2 2 2 2 2 2 2 2 2 2 2 2 2 2 2 2 2 2 2 2 2 2 2 2 2 2 2 2 2 2 2 2 2 2 2 2 2 2 2 2 2 2 2 2 2 2 2 2 2 2 2 2
left_child=2 3 44 7 11 6 9 10 19 38 31 14 41 -11 16 -16 18 61 -4 32 22 -22 -19 24 -8 -17 -9 -18 50 -30 -25 40 -6 -34 36 37 55 -36 -5 -37 -2 -7 52 51 45 46 -1 48 56 -50 -12 -28 58 59 -14 -13 -46 -58 60 -54 -3 -10
right_child=1 42 4 5 8 12 23 26 17 13 28 34 54 -15 15 25 27 20 -20 -21 21 -23 -24 30 -26 -27 43 -29 29 -31 -32 -33 33 -35 35 39 -38 -39 -40 -41 -42 -43 -44 -45 47 -47 -48 -49 49 -51 -52 -53 53 -55 -56 -57 57 -59 -60 -61 -62 -63
leaf_value=-0.016584510709827815 -0.0022234255155349765 -0.0047642210164740989 -0.017011144473921488 -0.0077946732948612285 -0.0013525623358809974 -0.015743905095507764 0.015005816582959072 -0.021179744984120671 0.00046909242407983847 0.009720200625824231 -0.003386995753201802 -0.00048497030462564268 -0.002016217008860031 0.00061178959699982962 -0.0076373162970966996 0.00034979098811153248 0.0052295070400013143 0.021103839704151021 0.00015685585596017027 0.00061049184336961601 0.022297404207290122 -0.006834994519059388 0.0026205556238588323 0.0038002482875797846 -0.0078784211464433419 0.015968598121621623 -0.014752358650634373 0.0022041088615378265 -0.0050647583699074405 0.012246412489833608 -0.0038533192693007683 -0.016519365700885684 0.010690511096538171 0.0058662535636142699 -0.010391906711378948 -0.029194913294550848 -0.013792924383879333 0.0089217920766477988 0.0048091923629510272 -0.0025480802212491296 -0.0086470337457744111 -0.0044548281410986537 -0.018354510052897403 -0.017165316901000021 -0.015372977050679044 -0.01064101204563676 0.019585334802348617 -0.01451854607271004 0.014805094634647074 -0.0044210676364712584 0.0020239828948855386 -0.0057210626383804456 0.011108243035829937 -0.010979467193328289 -0.014462440886469689 -0.0042045109524593291 0.0059731997530522597 -0.0090045099056187596 -0.0012099388089913043 -0.0064197549942747534 -0.01598795422061728 -0.0058562160186091256
leaf_weight=33.186697468161583 885.78004522621632 213.75694663822651 151.4472863227129 480.58341331779957 472.44849014282227 641.67305521667004 88.860045462846756 339.63441677391529 1538.9722002148628 2250.9915725141764 1651.726674720645 9081.5972720980644 2032.8191733658314 875.72399650514126 1315.4711192846298 5672.6384567022324 4824.9324190467596 114.90805421769619 7261.477629289031 1393.940249055624 221.62421341240406 72.858754262328148 8102.6155822128057 1013.848460957408 1615.2297973632812 157.88046903908253 414.58327378332615 20992.56390362978 5745.8439097255468 198.35834477841854 1208.0509258806705 386.14921344816685 2003.289365068078 6557.2148401737213 91.119145587086678 44.386183992028236 226.19788040220737 875.72891391813755 283.79391111433506 284.88242200016975 2419.0480176061392 310.17007273435593 451.6421163380146 394.93906369805336 356.29282538592815 108.54416993260384 135.15786717832088 428.5023390352726 183.79823979735374 649.04204873740673 1776.7929255515337 1176.5155991911888 155.20784576237202 407.03073769807816 163.94373866915703 2089.1488960087299 151.87771742045879 461.9807074368 160.01599361002445 140.86538051068783 945.26913504302502 804.29543043673038
leaf_count=116 2695 670 534 1549 1408 2250 215 1255 4486 5827 5060 26769 6136 2540 4203 16546 13241 252 21229 4039 476 230 22963 2854 5195 377 1431 59875 17946 503 3720 1357 5106 17810 299 174 768 2303 788 860 7861 964 1628 1408 1238 360 306 1477 448 2006 5105 3702 401 1364 567 6423 416 1505 483 446 3319 2524
internal_value=-2.17512e-07 -0.00427118 0.00160174 -0.00359966 0.0018462 -0.00092227 0.001003 -0.00550743 0.00395675 0.00514886 -0.00443491 0.000999815 -0.00570215 0.00716914 0.00159805 -0.000775442 0.00210845 0.00222139 -0.000193889 0.00576341 0.00330146 0.0150897 0.00287901 -0.00310601 -0.00668512 0.000772722 -0.011532 0.00276951 -0.00305891 -0.00448708 -0.000361011 -0.00792906 0.00655859 0.0069952 -0.000903145 0.00373764 -0.00143092 0.0071016 -0.00311518 -0.00614014 -0.00692534 -0.0120652 -0.0114253 -0.00988211 -0.00564421 0.00340103 0.012455 -0.00676656 -0.00492421 -0.000178076 -0.000582815 -0.00807429 -0.00987769 -0.00519015 -0.00294507 -0.0011806 -0.00899859 -0.0052988 -0.0123763 0.00276879 -0.013918 -0.00170199
internal_weight=105689 28828.8 76860 26355.1 74351.6 10965.7 7817.08 15389.4 21282.2 3891.09 13063.7 53069.5 3148.61 3126.72 40376.4 7145.99 33230.4 10855.3 7412.92 10426.9 8512.01 294.483 8217.52 3925.99 1704.09 5830.52 2325.67 25817.5 9372.72 5944.2 2221.9 3690.98 9032.95 8560.5 12693.1 1296.12 11396.9 966.848 764.377 329.269 3304.83 951.843 2473.79 1986.04 2508.38 276.889 168.345 2231.49 1802.99 832.84 3428.52 1591.1 2022.15 703.104 2196.76 11170.7 970.151 613.858 1319.04 296.073 1159.03 2343.27
internal_count=310006 89239 220767 80928 212895 32605 22688 48323 59294 10704 40527 153601 9917 8367 116005 21126 94879 30931 21763 28363 23921 706 23215 11984 5410 16923 7796 73116 28614 18449 6574 11913 24324 22916 37596 3636 33960 2602 2337 1034 10556 3214 8311 6541 7872 782 422 7090 5613 2454 10165 5133 6683 2211 6703 33192 3159 1921 4472 847 3989 7010
is_linear=0
shrinkage=0.02


Tree=5
num_leaves=63
num_cat=0
split_feature=1 1 16 14 17 9 11 10 3 0 17 0 16 17 12 16 0 15 15 13 13 9 9 10 16 16 7 17 1 9 17 18 15 15 18 16 14 0 7 16 13 15 14 15 15 16 15 18 17 0 12 1 15 10 16 17 0 16 9 18 11 7
split_gain=1382.63 402.632 370.543 387.639 231.955 249.411 196.37 269.299 184.487 172.855 162.702 155.022 138.876 138.465 125.25 118.294 108.901 119.963 108.145 106.774 119.188 103.517 124.134 99.9369 91.5609 96.6615 88.9184 107.132 87.4061 81.6325 80.7348 120.831 78.8564 78.3527 112.007 71.1087 100.702 70.6355 70.5404 69.3898 68.8651 67.218 130.326 76.0994 65.5487 62.947 59.3704 57.0406 99.8918 61.194 57.8689 56.9556 56.7524 55.9384 55.6344 56.8999 54.3983 73.92 60.2897 54.2216 53.4242 55.1798
threshold=2.145925879478455 3.9957014322280888 12.048983573913576 -1.3305467367172239 0.35830037295818334 34.485746383666999 0.73953586816787731 4.5062077045440683 -0.0038133823545649643 69.697753906250014 0.90482428669929515 57.409681320190437 10.337909221649172 0.063184436410665526 0.050867646932601936 2.8747591972351079 23.079963684082035 37.386474609375007 34.346378326416023 1.0278408468166754e-26 1.1800145513403691e-34 74.266857147216811 45.459697723388679 9.7906365394592303 4.4617953300476083 4.2623474597930917 0.34031173586845404 0.74526748061180126 5.3637907505035409 19.407374382019047 1.1927856206893923 -4.1511764720780768e-05 68.860195159912124 25.444191932678226 8.5941178440407401e-06 25.424917221069339 -0.0676080286502838 29.871505737304691 -0.81223732233047474 3.9734411239624028 6.642265767857516e-25 50.536197662353523 -1.2298968434333799 59.674966812133796 27.133256912231449 2.1751687526702885 54.65477371215821 0.00071897057932801556 0.69437521696090709 56.215486526489265 0.001114750048145652 10.254009246826174 33.960298538208015 5.6315207481384286 15.286373138427736 0.036363972350955016 51.724304199218757 2.8747591972351079 71.054771423339858 0.33258824050426489 0.17823930084705356 -1.4218727350234983
decision_type=2 2 2 2 2 2 2 2 2 2 2 2 2 2 2 2 2 2 2 2 2 2 2 2 2 2 2 2 2 2 2 2 2 2 2 2 2 2 2 2 2 2 2 2 2 2 2 2 2 2 2 2 2 2 2 2 2 2 2 2 2 2
left_child=2 9 3 11 5 40 7 -3 28 10 12 19 16 29 15 18 59 -18 -15 20 39 22 54 -17 25 -8 45 -28 37 -5 31 46 -30 -14 -35 38 52 -9 -7 -1 -4 42 -10 -43 -40 -16 -26 50 60 -50 -6 -33 -37 -32 55 -11 -12 -58 -59 -2 -49 -62
right_child=1 6 4 13 47 35 24 8 41 21 56 -13 33 14 26 23 17 -19 -20 -21 -22 -23 -24 -25 30 -27 27 -29 32 -31 53 51 -34 34 -36 36 -38 -39 44 -41 -42 43 -44 -45 -46 -47 -48 48 49 -51 -52 -53 -54 -55 -56 -57 57 58 -60 -61 61 -63
leaf_value=-0.022101890964648981 0.0044691300269028315 -0.015198919514015091 0.0016412350640141564 -0.011023669954431752 -0.010368290066534778 -0.0027979691246557865 -0.0049969842748813741 0.0031758739532023557 -0.002627277647049718 -0.00083794819438553754 -0.0098098059401155752 0.0023705172441558973 -0.0039240318200022065 -0.0242977222309224 -0.0090466603530523059 0.0023603763778000083 -0.0077252007100030023 -0.0026651090862412153 -0.0010294801230777439 -0.023403835525985718 0.015223866357126256 0.010723968765787026 -0.0017291858259814352 0.015423156496681384 -0.011809228745012492 0.031329325846891257 -0.0074467685902565054 -0.00021668501313510123 -0.012356189057052845 -0.0013100048869982128 0.011335973092889948 -0.0047582210258267669 0.0022077012787685185 0.0033996644911672598 -0.0017381820749328889 0.032194518529939195 0.0054385746666285378 -0.0067246230557204021 0.0081696603230850279 -0.0071590977490087471 -0.021358261395822944 -0.012436257014352366 0.0069436222079519543 -0.00092318179159098116 0.014177303518247655 0.001564800653892323 -0.021449269454427523 -0.0015505785333132477 -0.0025687232685923985 0.0067225674513519311 0.0012974780601511429 -0.017415593108071538 -0.0063436246511336973 -0.021056843949514511 -0.012414894789864994 0.013278822736848703 0.024263241941824096 -0.0088110934461329924 -0.00018470578917735781 -0.013621109076490216 0.026731109514263409 0.0083677042705337622
leaf_weight=132.93963539600372 912.68394504487514 844.40453018248081 1056.067682236433 391.21488097310066 279.06409822404385 151.59524123370647 108.41118413209915 438.46934878826141 1203.7049970328808 150.26667129993439 1380.6989574432373 702.03347074985504 1539.9933104813099 82.130924940109253 232.93728117644787 42655.149584144354 2411.987666413188 8403.6493184715509 2939.9655714035034 174.47448439896107 91.315931841731071 524.27873173356056 1844.2887435555458 235.56269851326942 899.43785089254379 40.152129918336868 1300.1895668059587 2218.6111603081226 1218.6071500480175 2998.5263020098209 22.514239445328712 1323.4746400266886 169.38084730505943 3741.1509440243244 3106.6011810749769 184.27059638500214 113.60234950482845 841.36084960401058 1442.0093783885241 1914.0376856178045 54.775095000863075 312.98303464055061 1079.4427020996809 862.46193219721317 1464.0245688408613 5582.1871130019426 356.97032909095287 202.29192966222763 1122.9012323915958 379.32378654181957 435.57125705480576 159.32175576686859 16.667425706982613 403.43228544294834 48.164701908826828 475.95740953087807 35.633284911513329 720.69138064980507 588.87635578215122 71.463311150670052 71.142769441008568 818.50166943669319
leaf_count=493 2546 2931 3023 1305 913 458 340 1251 3660 445 4537 2007 4715 309 753 121338 7741 25480 8709 658 222 1349 5516 566 3032 77 4147 6533 4136 8921 59 4155 491 10550 9333 333 309 2682 3786 6090 201 1055 2924 2578 3553 16030 1323 604 3385 1025 1254 570 52 1497 161 1182 76 2344 1743 243 145 2162
internal_value=-2.66633e-07 -0.00316687 0.00165232 0.00113294 0.0057618 0.00872638 -0.00651586 -0.00461044 -0.00315103 -0.00183992 -0.00243469 -0.00586109 -0.0018154 0.00149254 0.00173328 0.00216264 -0.00321398 -0.00379356 -0.00166184 -0.00835976 -0.00713224 0.00263872 0.000955724 0.00243212 -0.0105242 0.00482091 -0.000378752 -0.00288819 -0.0071027 -0.00243107 -0.0112444 -0.00998483 -0.0105789 0.000152107 0.00106879 0.0114339 0.020489 -0.00333272 0.0105024 -0.00812955 0.000507142 -0.000102866 0.00189772 -0.00398874 0.0111962 0.00113974 -0.0145482 0.00174516 0.00312342 -0.000222598 -0.00325799 -0.00611822 0.0289979 -0.0193447 0.0082983 0.00989141 -0.00702104 -0.00415869 -0.00493205 0.00315552 0.00772667 0.00983618
internal_weight=105684 36240.9 69443.1 61651.3 7791.81 4483.01 10284.5 6970.82 6126.41 25956.4 22913.4 3014.8 20187.5 58636.5 55246.7 45912.8 11799.8 10815.6 3022.1 2312.77 2138.29 3042.96 2518.68 42890.7 3313.71 148.563 9333.93 3518.8 2667.82 3389.74 3165.15 2739.2 1387.99 8387.75 6847.75 3372.17 314.54 1279.83 3057.63 2046.98 1110.84 3458.59 2283.15 1175.44 2906.03 5815.12 1256.41 3308.8 2594.16 1502.23 714.635 1482.8 200.938 425.947 674.389 626.224 2725.9 1345.2 1309.57 984.147 1091.94 889.644
internal_count=310006 110722 199284 178081 21203 11715 32761 21708 18777 77961 69308 9470 60608 168611 158385 130922 36010 33221 9018 7463 6805 8653 7304 121904 11053 417 27463 10680 8560 10226 10636 9080 4627 24598 19883 8491 694 3933 7797 6583 3224 10217 6584 3633 7339 16783 4355 9488 7321 4410 2167 4725 385 1556 1788 1627 8700 4163 4087 2789 2911 2307
is_linear=0
shrinkage=0.02


Tree=6
num_leaves=63
num_cat=0
split_feature=8 19 16 11 11 9 15 15 19 7 7 13 8 8 16 18 12 19 19 13 16 8 19 6 8 9 16 9 8 16 19 19 18 10 8 10 14 12 8 8 9 15 11 9 8 10 18 16 7 8 9 19 9 12 8 0 11 9 12 14 18 0
split_gain=1695.32 367.647 339.637 267.093 287.598 204.038 193.449 183.044 170.206 169.223 148.498 146.4 145.353 129.668 144.909 110.611 109.712 108.866 112.875 103.09 100.607 133.154 124.594 97.0294 96.7044 105.018 98.7063 92.0028 91.8482 91.2907 90.7611 90.5382 87.5153 85.5746 84.7933 83.7653 82.7099 79.0784 71.5563 71.2266 70.4427 68.1726 67.6693 126.5 69.029 66.7245 65.9537 65.7127 66.3274 64.8507 82.9995 63.8533 60.592 58.0452 58.0087 57.7781 57.7079 57.183 56.3817 106.27 78.1449 56.0145
threshold=0.54618728160858165 -1.0000000180025095e-35 8.514773368835451 0.91157159209251415 0.17823930084705356 20.024600028991703 37.386474609375007 45.351409912109382 1.0973115750272044e-31 0.67342570424079906 -0.63760671019554127 1.3589914296674209e-34 1.1130643486976626 1.1473164558410647 16.746406555175785 -0.034750001505017274 0.045727353543043144 -5.3655795427978467e-21 -1.1043160005622885e-32 5.4590556878799471e-34 3.6545562744140629 0.22720771282911303 -2.3195767889535962e-31 0.064058393239974989 0.63148620724678051 32.409236907958991 12.758656501770021 21.329491615295414 0.60485684871673595 8.608182907104494 1.5892764438353949e-32 -3.6168215368200315e-14 -0.020635294727981087 1.6213880777359011 0.80129566788673412 8.4215579032897967 -3.5606681108474727 -2.0129411220550533 0.2797930389642716 1.3378403782844546 62.206041336059577 59.502065658569343 0.58449164032936107 38.422916412353523 0.39995577931404119 13.040743350982668 0.0056839706376194963 12.758656501770021 -1.056691527366638 0.40186893939971929 34.248838424682624 -7.32691715594558e-15 30.615456581115726 9.4205884124676248e-06 0.42857824265956884 19.050167083740238 0.88347351551055919 54.549543380737312 0.36997058987617498 -1.0244271159172056 -9.7323384284973127 66.468826293945327
decision_type=2 2 2 2 2 2 2 2 2 2 2 2 2 2 2 2 2 2 2 2 2 2 2 2 2 2 2 2 2 2 2 2 2 2 2 2 2 2 2 2 2 2 2 2 2 2 2 2 2 2 2 2 2 2 2 2 2 2 2 2 2 2
left_child=2 24 5 4 13 32 17 11 10 20 29 12 -6 14 19 56 49 31 -19 -3 22 -22 -8 -17 25 45 -26 -16 61 -4 -15 33 35 -7 -28 55 -30 -31 -20 -5 -41 54 43 47 -45 -2 -33 48 -10 -12 -51 57 -49 -39 -34 -1 -11 -18 60 -60 -36 -9
right_child=1 3 8 39 7 6 9 28 42 15 16 -13 -14 30 27 23 51 18 38 -21 21 -23 -24 -25 26 -27 34 -29 36 37 -32 46 41 -35 58 -37 -38 53 -40 40 -42 -43 -44 44 -46 -47 -48 52 -50 50 -52 -53 -54 -55 -56 -57 -58 -59 59 -61 -62 -63
leaf_value=0.022493151588115486 -0.019530623541084147 -0.0060261024227145502 0.018100749952574307 -0.0076564682665940867 0.0025458749582535686 -0.027250186270278719 -0.0037330335896552775 -0.00018004030694350782 -0.018651465617497791 -0.0044960756853399415 0.0077126450277961531 -0.016353155384063449 -0.0059073225312380948 -0.016966286208364149 -0.015154837207616774 -0.003757594589093069 0.0041600625957689133 -0.0080375941777630269 0.0014553265611897399 -0.022987351936770858 0.0059340409672998494 0.0019932301828642475 0.0016607902833707911 0.0029336944515587762 -0.0142848105667475 -0.003885729108489258 5.1718265388281712e-05 0.004502184602559552 0.0098291928331111153 -0.014593940474290853 0.00047584155899582962 0.0076435714790100357 -0.0071026053198627913 0.00073040927595738119 0.014361040952037328 0.029715752050347405 -0.0042120518468843357 0.0019742135855633008 -0.0030324790312362118 0.0037835835746954441 -0.020134020907264537 0.015406406328584671 -0.0029101565292780742 0.0095138416907089556 0.0014343086470529284 0.023039691207961694 0.033097544725745491 0.012406188952598277 -0.0031542323752116099 -0.002374590274599974 0.0055952256815477129 0.0024015230028198425 -0.0046071468511305336 -0.006308614667557012 -0.017586162685659195 -0.0033369182287978751 -0.015416018369592053 -0.016751672349693381 0.03477091687521594 -0.0083660874970323297 -0.01693453694635522 0.010793411882500728
leaf_weight=38.333423048257828 261.03208364546299 3842.4344625771046 116.69740301370621 2182.4455163925886 7001.350897103548 47.207219213247299 2493.8942322134972 1640.034147799015 127.44016598165035 481.22088429331779 6314.0773344486952 186.72684831917286 920.6478967666626 644.99294129014015 108.02998487651348 1875.034785464406 82.762510791420937 1265.0895421802998 2164.3653793334961 148.89208833873272 3926.114394903183 27119.481834694743 5470.9697711616755 1612.177492171526 1757.090788602829 1785.1795769780874 448.16979332268238 804.53764688968658 171.63623076677322 140.20390284061432 146.4234721660614 535.62351125478745 1034.5390763282776 592.04949708282948 34.360964611172676 39.423274517059326 7518.5111092925072 2387.6787645369768 4138.6174590587616 57.32496540248394 349.94023191928864 46.489320680499077 1613.2051414400339 910.13296447694302 790.23864254355431 15.608218371868132 44.068240270018578 192.60659815371037 829.59373007714748 587.45809924602509 4740.374725997448 1442.5379133671522 148.13051378726959 394.32106474041939 265.25481683015823 359.46999484300613 323.85063515603542 142.13241782784462 27.462371483445168 135.83208797872066 448.3362113982439 209.88087184727192
leaf_count=82 952 12190 267 7072 19886 181 7618 4842 459 1497 16658 661 2910 2308 373 5741 230 4049 6226 562 10647 77450 15720 4555 6103 5525 1329 2252 450 485 432 1429 3318 1724 85 74 23306 6836 12579 165 1293 112 4883 2350 2271 34 80 483 2513 1762 12902 4089 455 1240 953 1101 1133 495 48 445 1594 542
internal_value=-3.11053e-07 -0.0039458 0.00162606 -0.00299545 -0.00231942 0.000785641 0.00101339 -0.00105836 0.00378622 0.00156243 0.00474343 0.00115091 0.00156349 -0.00622723 -0.0050149 -0.00220677 0.00565425 -0.00169227 -0.00258569 -0.00665882 0.00197715 0.0024916 -2.80805e-05 -0.000664136 -0.00896225 -0.00566259 -0.0113483 0.00217518 -0.00293617 0.000754336 -0.0137392 0.00385468 -0.00586613 -0.00133588 -0.00663268 0.00190796 -0.00389867 6.16113e-05 -0.00149142 -0.00908929 -0.0167675 -0.00839088 0.000392728 0.0021699 0.00575892 -0.0171288 0.00957859 -0.00253251 -0.00521787 0.00634146 0.00471646 0.000856184 0.00500989 0.000800204 -0.00924203 -0.000847862 -0.00888877 -0.00905604 -0.0112701 -0.00111144 -0.0147068 0.00106495
internal_weight=105680 30846.9 74832.9 25933.8 23344.1 53873.3 52089.8 17648.8 20959.6 43302.7 16348.2 8108.73 7922 5695.31 4903.89 4292.28 13309.3 8787.02 7568.07 3991.33 39010.5 31045.6 7964.86 3487.21 4913.07 2061.82 2851.25 912.568 9540.06 3038.9 791.416 1218.95 1783.51 639.257 1094.16 437.227 7690.15 2922.2 6302.98 2589.71 407.265 1346.28 4611.35 2998.14 1700.37 276.64 579.692 1297.77 957.034 11641.9 5327.83 1667.43 340.737 2782 1299.79 397.803 805.072 224.895 645.992 163.294 482.697 1849.92
internal_count=310006 95359 214647 79244 70714 156269 150629 52597 58378 124361 44964 23457 22796 18117 15377 12926 36136 26268 22854 12752 111435 88097 23338 10296 16115 6511 9604 2625 29140 8828 2740 3414 5640 1905 3501 1257 23756 8561 18805 8530 1458 4383 13414 8531 4621 986 1509 3910 2972 31322 14664 4814 938 8076 4271 1183 2630 725 2172 493 1679 5384
is_linear=0
shrinkage=0.02


Tree=7
num_leaves=63
num_cat=0
split_feature=8 19 16 1 16 15 9 9 9 15 19 14 10 7 1 9 1 16 8 19 8 16 18 19 19 15 19 0 9 9 19 16 16 15 18 8 1 19 10 10 9 9 19 19 8 9 15 16 15 10 3 15 13 1 18 15 3 18 15 9 10 15
split_gain=1628.94 354.116 325.916 279.494 225.9 212.448 197.157 196.901 196.118 185.77 163.713 162.994 141.96 135.265 121.907 113.896 108.494 107.759 132.403 123.982 106.048 142.036 105.743 104.56 108.607 102.62 101.391 97.763 89.4743 91.2706 86.802 86.5988 84.7901 84.6723 84.2264 84.1508 83.3707 83.9144 82.545 80.1652 75.8404 73.7711 69.2295 69.2108 68.7553 67.8696 75.4618 67.5652 67.4178 67.3654 67.013 65.5073 65.0123 64.4161 62.9066 62.5155 60.2693 60.17 60.0134 71.7361 59.0178 69.2075
threshold=0.54618728160858165 -1.0000000180025095e-35 8.514773368835451 3.2826710939407353 12.416458606719972 37.010215759277351 62.437236785888679 38.565336227416999 20.024600028991703 37.386474609375007 6.6042037241445978e-28 0.90384432673454296 4.1365416049957284 -0.63760671019554127 1.723416328430176 42.114507675170906 2.760064005851746 3.6545562744140629 0.22720771282911303 -1.3724817545674074e-31 0.72810250520706188 14.173205852508547 -0.034750001505017274 -5.3655795427978467e-21 -1.1043160005622885e-32 83.016128540039077 8.0353104270174124e-13 71.95294570922853 22.873120307922367 56.252637863159187 -3.6168215368200315e-14 8.608182907104494 23.674872398376468 46.37388992309571 -0.020635294727981087 0.57331010699272167 2.1312365531921391 1.4191585975473893e-21 1.6213880777359011 8.4215579032897967 69.69730377197267 84.218826293945327 1.0750066696254094e-23 -3.0434821560622046e-16 0.2797930389642716 38.565336227416999 58.693384170532234 6.9483616352081308 31.112323760986332 6.5602593421936044 0.0021973529364913706 59.502065658569343 8.1082345842375365e-25 3.4397985935211186 0.0056839706376194963 25.020730018615726 10.194764614105226 -1.3274412155151365 21.74300575256348 43.851362228393562 4.7991304397583017 54.841463088989265
decision_type=2 2 2 2 2 2 2 2 2 2 2 2 2 2 2 2 2 2 2 2 2 2 2 2 2 2 2 2 2 2 2 2 2 2 2 2 2 2 2 2 2 2 2 2 2 2 2 2 2 2 2 2 2 2 2 2 2 2 2 2 2 2
left_child=2 16 8 4 7 36 12 55 34 23 13 17 15 31 33 -5 52 19 -19 -11 -14 -22 -13 30 -25 -7 49 -24 42 45 38 -4 57 40 39 -18 37 -6 -10 53 -15 -35 -12 -37 -26 46 -30 -17 -38 -9 60 -36 -2 -1 -32 -3 -16 -33 -45 -60 -8 -62
right_child=1 3 10 6 5 25 50 26 9 11 28 22 20 14 56 47 35 18 -20 -21 21 -23 27 24 44 -27 -28 -29 29 -31 54 32 -34 41 51 43 48 -39 -40 -41 -42 -43 -44 58 -46 -47 -48 -49 -50 -51 -52 -53 -54 -55 -56 -57 -58 -59 59 -61 61 -63
leaf_value=-0.0033100894285227681 -0.0049798177297313319 -0.019892954987433965 0.017697735026176414 -0.019119263755466659 0.013002698392776343 -0.00079582842183770219 -0.019712524519197087 -0.0015753702342742215 -0.02681831435612669 -0.0037607326747126336 0.01823783244829116 -0.0080940419705165609 0.0015439057276959202 0.0086882831969751859 0.0031162898226967544 0.0023448352658695026 -0.00060704670406505276 0.0059475613284747852 0.0020025118004915556 0.0016071553810262699 -0.008099276048714547 -0.0018656445594138135 -0.0014639877483392061 -0.0078865614367451091 0.0014259135151720964 -0.018960720690325165 -0.011166935119888836 0.0098052783488544199 0.0015648901180007812 -0.0036242620148780645 0.0074824007881316617 -0.012785242742998916 0.021095013154773815 0.0045155933546748546 -0.0090719983699473882 -0.019952201970462883 0.0010159361297379156 -0.006488378563377935 0.00071572106774123417 0.02902338110515108 -0.0037861407204312571 -0.025478793081080541 -0.016469167308531069 0.007610613335613985 -0.0029732243560777684 0.0054142635979831655 -0.012320399855485494 -0.0097659568548644302 0.0098573334541091351 0.0042797236568205416 -0.012166868169109961 0.015065044078397401 -0.020604572850904137 0.02530321248377836 0.032288942494730188 -0.007391725644288645 -0.01574346277444643 0.00028001853102822344 -0.019939989816651352 -0.0098605068770973546 0.0058373509135016474 -0.0072300963564236129
leaf_weight=363.26338721811771 2255.5683473050594 175.15354433655739 116.96498499810696 384.34933164715767 856.87998919188976 2657.2838910669088 104.88543532788754 4943.6045290380716 47.01005257666111 2533.3397913873196 26.102890878915787 902.38692891597748 1750.5617187023163 5564.9640437662601 4703.5437989532948 266.369958370924 248.12918566167355 3901.4525677412748 26632.076088637114 5368.1993273198605 2225.0130806267262 4264.1360327005386 3638.2791890054941 1263.5461887568235 2164.8259771317244 130.51198959350586 390.62751741707325 336.39433957636356 767.53907839953899 1250.6872344613075 536.21158051490784 148.54019655287266 75.413513466715813 3200.622466802597 1297.6986698657274 444.64563037455082 1186.1592875570059 98.511301606893539 592.11492989957333 39.5550886541605 202.02555181086063 33.139048635959625 192.6985944211483 65.691685929894447 4136.6953739821911 1646.4503621011972 196.6756239682436 597.78132954239845 486.45917668938637 934.61091493070126 1779.4345063120127 46.590831860899925 111.79924553632736 34.456758230924606 44.266321912407875 1850.469888612628 68.768211141228676 2775.761757209897 352.11773346364498 1427.2336793839931 219.86752215027809 617.22717554867268
leaf_count=1113 7072 642 267 1393 2106 7902 383 14842 181 7751 61 2930 5086 14454 13185 769 739 10553 75985 15424 7225 12894 10850 4049 6226 472 1309 868 2207 3817 1429 506 165 8811 4271 1650 3421 308 1724 74 611 126 675 178 12579 4493 656 1968 1254 2624 6082 112 417 70 80 5958 237 8107 1297 4762 611 1995
internal_value=-3.56346e-07 -0.00386971 0.00159318 -0.00293719 -0.000977315 0.00219976 -0.00513794 -0.00305176 0.000769831 0.000992971 0.00370862 0.00153083 -0.00377684 0.00457718 0.0054286 -0.0100615 -0.00879736 0.00196788 0.00250659 -0.000113862 -0.00282457 -0.00400305 -0.00191343 -0.00165891 -0.00253501 -0.00164623 -0.00130012 -0.00051022 0.000113222 0.000818234 0.00377543 0.000814651 0.000156345 0.00679871 -0.00575526 -0.0116702 0.00627959 0.010993 -0.00130951 0.00186943 0.00825129 0.00420822 -0.0123286 -0.0128691 -0.00146194 0.00294649 -0.00126736 -0.00603287 0.00358734 -0.000644436 -0.00988341 -0.00823545 -0.0057177 -0.000831156 0.00937411 -0.00847269 0.00284452 -0.000383633 -0.0111621 -0.0118551 -0.00556989 -0.00379786
internal_weight=105673 30825.1 74848.3 25919.9 13710.3 5415.81 12209.6 8294.47 53878.4 52096.8 20969.9 43312.1 9488.21 16889.7 13773.1 1248.5 4905.19 38435.1 30533.5 7901.54 8239.71 6489.15 4877.06 8784.67 7565.07 2787.8 6268.84 3974.67 4080.15 3861.35 1219.6 3116.68 2999.72 9000.75 1781.56 2537.82 2628.01 955.391 639.125 437.275 5766.99 3233.76 218.801 2289.69 6301.52 2610.67 964.215 864.151 1672.62 5878.22 2721.41 1344.29 2367.37 397.72 580.478 2025.62 4772.31 2924.3 1845.04 1779.35 941.98 837.095
internal_count=310006 95359 214647 79244 40838 15463 38406 25375 156269 150629 58378 124361 29335 46469 37424 4130 16115 109713 86538 23175 25205 20119 14648 26268 22854 8374 18775 11718 11909 11173 3414 9045 8778 24002 5640 8626 7089 2414 1905 1257 15065 8937 736 7887 18805 7356 2863 2737 4675 17466 9071 4383 7489 1183 1509 6600 13422 8613 6237 6059 2989 2606
is_linear=0
shrinkage=0.02


Tree=8
num_leaves=63
num_cat=0
split_feature=8 19 9 16 11 11 15 15 7 8 8 16 13 8 16 1 19 19 12 13 13 11 19 16 19 16 19 15 12 15 9 1 15 19 9 20 8 16 8 14 12 14 1 14 12 2 13 16 12 16 16 1 15 19 9 3 15 9 2 15 13 15
split_gain=1566.43 360.604 298.307 288.501 274.211 255.332 188.367 186.212 150.092 148.61 144.846 147.26 112.519 107.476 123.677 101.282 100.371 105.129 97.3602 96.8377 94.8042 90.7018 117.068 90.6706 137.228 115.596 90.4575 87.3507 85.7966 84.1227 83.1601 82.1216 81.7316 79.1659 77.7479 76.0753 70.6471 71.1213 69.4684 69.142 67.3634 153.279 66.9884 65.8961 119.274 60.6302 59.3132 58.9993 108.157 85.3549 55.7711 103.397 53.8562 52.1599 59.9586 52.0517 50.3049 63.5896 49.118 46.9614 46.8504 85.3024
threshold=0.56305569410324108 -1.0000000180025095e-35 20.024600028991703 8.514773368835451 0.91157159209251415 0.17188834398984912 45.351409912109382 37.386474609375007 0.67342570424079906 0.40186893939971929 1.1130643486976626 12.531830310821535 5.7434203961163934e-25 1.1473164558410647 16.746406555175785 3.1383582353591923 -5.3655795427978467e-21 -1.1043160005622885e-32 0.017458234913647178 5.4590556878799471e-34 3.1367212707086706e-26 0.33622191846370703 1.615807385771765e-35 7.9325513839721689 1.615807385771765e-35 3.6545562744140629 1.5892764438353949e-32 53.947416305541999 0.00020553676586132499 32.973297119140632 21.329491615295414 2.9467952251434331 70.457622528076186 -1.594630081192677e-12 71.054771423339858 1.0000000180025095e-35 0.60485684871673595 18.782720565795902 0.2797930389642716 -1.3568059206008909 0.36997058987617498 -0.72094339132308949 1.723416328430176 0.10863807052373887 0.00038202940777409827 0.30907510221004492 -2.342357563844001e-30 13.299697399139406 -0.012351470999419687 6.384202480316163 5.7922930717468271 1.7005444765090945 78.347080230712905 -1.1685197524919794e-25 66.672050476074233 0.00028148529236204928 62.298334121704109 46.155590057373054 0.34140612185001379 65.842056274414077 1.0278408468166754e-26 21.74300575256348
decision_type=2 2 2 2 2 2 2 2 2 2 2 2 2 2 2 2 2 2 2 2 2 2 2 2 2 2 2 2 2 2 2 2 2 2 2 2 2 2 2 2 2 2 2 2 2 2 2 2 2 2 2 2 2 2 2 2 2 2 2 2 2 2
left_child=2 15 20 7 5 13 10 16 23 18 11 -7 21 14 19 47 28 58 39 -3 29 52 -23 25 -25 -9 -15 35 33 -1 -16 -6 -31 -4 -29 -10 45 -38 -19 -5 60 -42 -41 -14 -45 -8 -12 49 -49 50 51 -2 -11 -43 -55 -51 57 -50 -18 -57 61 -17
right_child=1 4 3 9 31 6 36 8 27 12 46 -13 43 26 30 40 17 38 -20 -21 -22 22 -24 24 -26 -27 -28 34 -30 32 -32 -33 -34 -35 -36 -37 37 -39 -40 42 41 53 -44 44 -46 -47 -48 48 56 55 -52 -53 -54 54 -56 59 -58 -59 -60 -61 -62 -63
leaf_value=0.0020474678156062725 0.0091825826905861368 -0.0059971368085150554 -0.00086251295825388538 -0.0013083015554127009 -0.0019463785726820291 -0.0012332972527353797 -0.0058271300010684316 -3.6948827084248189e-05 -0.0081372780434092913 -0.00046874666083655114 0.041692822555355481 0.0047113008846496303 -0.017657020477580779 -0.016442216137350991 -0.015385411487472007 0.0099061392999197483 -0.0025573497908222167 0.0013971025103246104 0.00046671883574909273 -0.023646497820218614 -0.016318651620465602 0.0052428372362269375 -0.00075566615843892463 0.001039492679346057 -0.0097956217875320769 0.0026721729200227702 0.0014999896559811476 -0.0032602784764304204 -0.016341634770070095 -0.0069141989330112411 0.0042250888988247604 -0.011234922182100848 0.039930328250819533 0.0096911137830690813 0.0031831944154176442 0.0033112806682080143 -0.0050798440799879243 -0.00090487068465911499 -0.0030051950707384542 0.0074309438785648066 0.035364137591014241 -0.015995027644876498 0.0030002502407089856 0.017526681314366514 -0.018327536046774621 0.0039150813670412324 -0.0067179398770433798 0.01310496111603386 -0.014479966377111624 -0.015221433912881365 0.0069965886151599549 -0.012283381616049183 0.019818259560139186 -0.016677672863920946 0.013828817124899502 -0.010953207091482831 -0.012082483713434563 0.010364813337258019 -0.010757317675687961 0.0014523615676206895 -0.029650014889720612 -0.0144943057136755
leaf_weight=661.55906906723976 125.63630473613739 3465.776700809598 512.81143707036972 472.24185132980347 473.13390965759754 2910.7748191952705 351.92491017282009 8022.911859869957 1212.2875078320503 3552.0114759206772 10.234497681260107 3900.5139094889164 179.26521825790405 618.39546160399914 98.020789071917534 59.593277633190155 455.62531585991383 2165.2752014994621 1395.2462449222803 128.97788402438164 277.9533479064703 5198.5001521259546 1736.0008592903614 1678.3193157464266 648.11319579184055 29338.302158474922 137.36298674345016 1494.9355476945639 80.719424203038216 1545.7091953605413 735.69098246097565 1949.5587596744299 15.04314339160919 638.06707641482353 1501.2634730190039 287.16321919858456 5399.212442278862 2339.2474761754274 4244.2524105608463 6881.7735823839903 34.839439988136292 171.08943432569504 1702.6575070768595 77.471884921193123 71.240390136837959 932.84480784833431 932.76410163938999 158.16746588051319 63.056545034050941 656.30689173936844 182.55293472111225 314.28907540440559 53.126039996743202 42.623592928051949 65.178464263677597 373.57378345727921 248.62047243118286 118.9245869666338 814.62645855545998 181.29249216616154 75.912883222103119 1495.3439947217703
leaf_count=1902 335 11043 1523 1408 1432 8707 1109 23513 3910 10446 16 10728 637 2218 341 157 1383 6226 4039 495 989 14175 5120 4842 2112 82921 401 4572 280 4958 2065 6633 23 1648 4236 812 16942 7006 12927 18156 60 611 4760 180 255 2631 2984 396 217 2307 503 1069 118 153 165 1253 844 310 2696 535 311 5262
internal_value=-4.00211e-07 -0.00398323 0.00148842 0.00171673 -0.00303536 -0.00233094 -0.00113219 0.00092762 0.00145955 0.00368196 0.00115383 0.0021709 0.0020444 -0.0062104 -0.00502078 -0.00927597 -0.00170971 -0.00255972 0.00538464 -0.00663039 -0.00530662 0.0024034 0.00374116 0.00185187 -0.00197903 0.00209042 -0.0131811 -0.00200392 0.00359061 -0.00392931 0.00191945 -0.00942094 -0.00646269 0.0049886 -3.17378e-05 -0.00594474 -0.00309672 -0.0038178 -0.00151801 0.00614228 -0.0126755 -0.00418841 0.00655215 -0.00949189 0.000350773 0.00124649 -0.00619253 -0.00654704 -0.00103878 -0.00831569 -0.00229666 -0.00615301 -0.000169793 -0.00912936 0.00176693 -0.0114092 -0.00623402 0.00175609 -0.00781608 -0.00689991 -0.0143082 -0.0135592
internal_weight=105666 28751.4 76914.5 74414.2 24384.4 21961.7 16777.5 53094.7 44183.3 21319.5 7754.29 6811.29 10867.6 5184.22 4428.47 4367 8911.38 7679.78 10451.9 3594.75 2500.26 10539.6 6934.5 39687.6 2326.43 37361.2 755.758 4495.65 1231.6 2222.31 833.712 2422.69 1560.75 1150.88 2996.2 1499.45 9023.23 7738.46 6409.53 9056.67 1944.58 313.731 8584.43 327.977 148.712 1284.77 942.999 2422.42 588.769 1833.65 622.478 439.925 3605.14 278.891 107.802 1211.17 430.602 181.981 1270.25 554.866 1630.85 1554.94
internal_count=310006 89239 220767 212895 74751 66686 50123 153601 126918 59294 22435 19435 30931 16563 13944 14488 26683 23232 28363 11538 7872 29859 19295 113388 6954 106434 2619 13530 3451 6883 2406 8065 4981 3171 8808 4722 27688 23948 19153 24324 6719 989 22916 1072 435 3740 3000 7769 1767 6002 1907 1404 10564 929 318 4095 1371 527 4079 1788 5730 5419
is_linear=0
shrinkage=0.02


Tree=9
num_leaves=63
num_cat=0
split_feature=1 1 16 14 17 9 11 10 3 0 17 0 16 17 19 7 10 0 15 16 9 9 2 16 16 19 11 0 19 15 18 19 15 17 18 19 19 19 10 16 15 14 15 19 19 19 9 19 3 9 15 15 14 1 10 15 17 1 19 16 0 16
split_gain=1201.85 349.989 333.371 357.144 208.903 230.513 176.575 256.412 170.269 158.76 148.59 147.642 128.545 125.446 110.073 106.038 153.609 102.301 111.548 100.093 99.6447 117.946 99.5608 87.1615 92.3601 86.3917 83.8944 121.003 80.5989 78.0232 100.944 77.139 81.8588 75.8674 118.643 75.5766 105.754 65.4734 65.3343 72.4245 62.7575 122.444 73.2453 61.9373 58.6387 61.1546 58.1971 58.0996 57.43 56.8463 56.369 55.2577 55.0022 54.6322 54.2396 54.1852 56.3121 53.923 53.6919 79.543 59.595 84.6993
threshold=2.145925879478455 3.9957014322280888 12.048983573913576 -1.3305467367172239 0.35830037295818334 34.485746383666999 0.73953586816787731 4.5062077045440683 -0.0038133823545649643 69.697753906250014 0.90482428669929515 58.333835601806648 10.337909221649172 0.063184436410665526 -2.4614811568410232e-18 0.31633406877517706 9.0290050506591815 23.079963684082035 37.386474609375007 2.1751687526702885 74.266857147216811 45.459697723388679 0.73207056522369396 4.4617953300476083 4.2623474597930917 -4.2739306814102517e-15 -0.098554097115993486 29.871505737304691 -4.2739306814102517e-15 25.444191932678226 8.5941178440407401e-06 2.1158679390733281e-29 19.773938179016117 1.1927856206893923 -4.1511764720780768e-05 2.2588914133630001e-21 1.5224897507556436e-28 1.3292720327912095e-29 3.6760362386703496 3.9734411239624028 50.536197662353523 -1.2298968434333799 59.674966812133796 -8.7161717889856336e-23 -1.0000000180025095e-35 -1.2375092629561835e-17 30.615456581115726 -1.8062245032979261e-09 0.36179411411285406 19.407374382019047 54.65477371215821 48.111640930175788 -1.7116180062294004 2.0464476346969609 5.6315207481384286 41.028087615966804 0.092362400144338622 10.254009246826174 2.1882525292108403e-14 5.9574902057647714 51.724304199218757 2.8747591972351079
decision_type=2 2 2 2 2 2 2 2 2 2 2 2 2 2 2 2 2 2 2 2 2 2 2 2 2 2 2 2 2 2 2 2 2 2 2 2 2 2 2 2 2 2 2 2 2 2 2 2 2 2 2 2 2 2 2 2 2 2 2 2 2 2
left_child=2 9 3 11 5 47 7 -3 26 10 12 38 17 14 46 19 22 -2 -19 28 21 44 -17 24 -8 -18 -9 -28 -15 -14 -31 32 -7 34 50 36 37 48 -1 -40 41 -10 -42 -21 45 -11 -5 -4 -6 -16 -25 -46 -34 -48 -35 56 -33 -36 60 -60 -12 -62
right_child=1 6 4 13 35 31 23 8 40 20 58 -13 29 15 49 16 25 18 -20 43 -22 -23 -24 33 -26 -27 27 -29 -30 30 -32 55 52 54 57 -37 -38 -39 39 -41 42 -43 -44 -45 51 -47 53 -49 -50 -51 -52 -53 -54 -55 -56 -57 -58 -59 59 -61 61 -63
leaf_value=0.0035195677860404553 0.0031261235767806833 -0.014643531237471252 -0.021562132908403146 -0.00079866596373077406 0.0022708841884433372 0.0050208893138568049 -0.0045534412117456124 -0.01772476861000542 -0.0023878046518209513 0.0099542595787794081 -0.010427262249965905 0.0028820999948832842 -0.003875513890945956 0.025498836769216899 -0.011342589354891198 -0.0012689751061867474 -0.034317917491894258 -0.0074069990655301499 -0.0025212776021155989 0.0040571577260333624 0.01049702227290138 -0.0017008646062024785 0.0028362170738810474 -0.011251280825001334 0.030948845531435312 0.012907314476124237 0.00047903702298820214 -0.0088711619735912881 -0.0041064974354244237 0.0033192415606658489 -0.0015599473361884849 0.026620318383742403 -0.0062873564117344469 0.011756388578241097 -0.0042212394648039175 0.0094395709373487364 -0.0097175631791629989 0.033317512871224683 -0.02557438851375789 -0.0081320265721769175 -0.011995584570409062 0.0068933291661233747 -0.00067965470712342559 0.0019497458860563467 0.006776113528214848 -0.017146293374974888 0.016226738114630008 0.0012938044784832736 -0.011485149506219865 -0.0027304443947301455 -0.020682673605634735 0.020664879317779609 0.014030414011079325 -0.022797194089443983 -0.020203715578822789 0.020420530722719269 -0.0023541012367130428 -0.016592330825576741 -0.029412770611527021 0.0098409454001757296 0.026823874455608982 -0.0051744043120930837
leaf_weight=182.78794378042221 984.18175108730793 839.54603837430477 46.425666436553001 207.84014213085175 2368.6902697980404 550.31182722747326 107.93605564534664 248.56153017282486 1201.0941824018955 65.54326157271862 1289.5628251731396 636.1425254791975 1539.146599650383 37.856799632310867 347.66084055602551 10115.474849388003 16.039858594536781 2404.8675621300936 8392.5378959178925 6689.3124762028456 524.96479281783104 1843.6023496538401 3083.4198777228594 894.31791189312935 40.23809714615345 455.91584131121635 862.82281810045242 1544.8936403393745 1297.0169144719839 3742.7134684324265 3101.6568375527859 29.162990391254425 54.529708921909332 22.433832779526711 1316.7045612633228 430.18121410906315 358.14518861472607 26.250331968069077 99.765631482005119 2090.5865582376719 311.65792846679688 1079.7110819071531 860.62234035134315 33591.846670359373 377.60089901089668 67.719381421804428 221.66276170313358 1065.4688473194838 127.95613612234592 2594.3209093362093 353.74825699627399 164.5036808103323 2354.0441792309284 15.343100622296332 399.22284138202667 60.36164815723896 335.49558059871197 157.82811890542507 24.085051834583282 144.74232007563114 34.007907554507256 1224.8979193121195
leaf_count=518 2789 2931 171 619 6726 1485 340 905 3660 170 4296 1807 4715 79 1175 30045 66 7741 25480 18583 1349 5516 8733 3032 77 1130 2562 5093 3982 10550 9333 59 171 59 4155 1127 1165 47 384 6761 1055 2924 2578 95767 1016 237 528 3053 423 7847 1323 365 5643 57 1497 134 999 570 95 385 69 3855
internal_value=-4.43278e-07 -0.00295713 0.00153843 0.00104561 0.00543222 0.00823992 -0.00608745 -0.0042798 -0.00285562 -0.0017206 -0.00229141 -0.00567424 -0.00169979 0.00139026 -0.00234613 0.00161914 9.09349e-05 -0.0030468 -0.00360946 0.00212116 0.00257044 0.000918509 -0.000309953 -0.00990264 0.00508754 0.0113023 -0.00666247 -0.00552045 -0.0032669 0.000193184 0.00110814 0.0108359 0.0119803 -0.0106091 -0.00938645 0.00162008 0.000452518 0.00189624 -0.00796785 -0.00892649 7.27988e-05 0.00200579 -0.00368806 0.00229971 0.00806882 -0.00381729 0.00692619 0.000339485 0.00156587 -0.00374816 -0.0139245 0.0109907 0.0135704 0.0137004 -0.0185033 0.00286846 -3.6918e-05 -0.00554539 -0.00668183 0.00424098 -0.00740543 -0.00431001
internal_weight=105658 36167.7 69490 61683 7807.02 4495.8 10241.3 6948.91 6109.36 25926.3 22882.4 3009.28 20165.1 58673.7 3386.83 55286.9 13670.9 11781.6 10797.4 41616 3043.93 2518.97 13198.9 3292.43 148.174 471.956 2656.28 2407.72 1334.87 8383.52 6844.37 3383.91 2958.89 3144.26 2722.6 3311.22 2881.04 2522.9 2373.14 2190.35 3453.09 2280.81 1172.28 40281.2 675.367 133.263 444.846 1111.89 2496.65 2941.98 1248.07 542.105 2408.57 237.006 421.657 425.02 364.659 1474.53 2717.3 168.827 2548.47 1258.91
internal_count=310006 110722 199284 178081 21203 11715 32761 21708 18777 77961 69308 9470 60608 168611 10226 158385 39974 36010 33221 118411 8653 7304 38778 11053 417 1196 8560 7655 4061 24598 19883 8491 7299 10636 9080 9488 8361 7196 7663 7145 10217 6584 3633 114350 1788 407 1204 3224 7149 9022 4355 1381 5814 585 1556 1192 1058 4725 8700 480 8220 3924
is_linear=0
shrinkage=0.02


Tree=10
num_leaves=63
num_cat=0
split_feature=8 19 17 17 1 19 19 19 3 17 2 10 12 18 15 19 18 17 10 8 3 2 1 1 14 10 1 8 20 18 17 8 10 18 7 10 18 17 10 18 1 19 8 10 18 15 6 10 13 12 14 15 12 14 19 1 13 15 10 6 7 7
split_gain=1469.72 327.414 263.139 193.406 192.505 170.484 247.991 269.929 226.919 189.799 173.223 168.46 155.843 150.417 145.399 133.056 124.232 138.274 117.678 110.953 117.271 110.916 106.301 98.2822 98.1791 96.3245 87.8908 87.3337 80.4007 79.9413 79.9126 78.9688 78.5118 78.451 75.2909 73.8462 73.3695 71.4405 70.6321 79.5063 65.968 65.6256 64.7064 96.7326 73.4941 85.0162 82.8788 62.2541 61.8998 59.1463 127.153 69.2268 57.8543 53.2174 52.8028 52.3567 50.4778 50.6209 50.3419 50.3366 50.2028 45.7668
threshold=0.54618728160858165 -1.0000000180025095e-35 1.0169084072113039 0.07851662859320642 3.2826710939407353 4.0174780796609075e-32 -6.6862489690176178e-33 -8.7161717889856336e-23 0.066367648541927352 1.1584964394569399 0.41640241444110876 4.1365416049957284 -0.0014470294117927549 0.00081191177014261495 23.6792106628418 1.7548204610282932e-31 -0.0061933821998536578 0.1307913884520531 8.3003463745117205 0.47008056938648229 0.0014089705655351283 0.27387148141860967 8.8039865493774432 2.760064005851746 -0.84177502989768971 3.57422947883606 4.4319703578948983 0.22123716771602633 1.0000000180025095e-35 -0.0014586323522962628 1.0065698623657229 0.57331010699272167 13.781117439270021 1.9867647097271405e-05 0.34884248673915869 8.5469493865966815 -0.017955293878912922 0.092362400144338622 1.750940263271332 12.90823554992676 13.64144277572632 -3.0434821560622046e-16 0.26761987805366522 5.9899897575378427 -3.3149265050888057 42.48646545410157 -0.90845769643783558 5.0568258762359628 8.1082345842375365e-25 0.36997058987617498 -0.72094339132308949 21.74300575256348 0.61814704537391674 -1.3879208564758299 4.0743865008774073e-16 2.145925879478455 1.3589914296674209e-34 79.341850280761733 6.8343291282653817 -0.061808109283447259 -0.68727284669876088 -2.2933448553085323
decision_type=2 2 2 2 2 2 2 2 2 2 2 2 2 2 2 2 2 2 2 2 2 2 2 2 2 2 2 2 2 2 2 2 2 2 2 2 2 2 2 2 2 2 2 2 2 2 2 2 2 2 2 2 2 2 2 2 2 2 2 2 2 2
left_child=3 23 4 32 16 6 7 8 10 13 -5 26 14 -9 60 28 17 18 -3 20 24 -16 35 48 -17 -19 30 -10 -7 -28 -6 -25 33 42 -22 -13 -24 54 -14 -40 55 61 43 53 45 -44 -46 -39 52 51 -51 -43 -2 -1 -18 -4 -57 -58 -30 -21 -8 -33
right_child=1 2 40 5 11 15 12 9 27 -11 -12 22 38 -15 21 19 37 25 -20 59 34 -23 36 31 -26 -27 29 -29 58 -31 -32 41 -34 -35 -36 -37 -38 47 39 -41 -42 49 44 -45 46 -47 -48 -49 -50 50 -52 -53 -54 -55 -56 56 57 -59 -60 -61 -62 -63
leaf_value=-0.014687650041332297 -0.003897505837128465 -0.0075791121306788148 -0.00031927237846690604 0.00091316945793813698 -0.0081745806180903886 -0.021266074093119664 -0.01825591129818039 -0.0044991558797625722 0.0089246874425610752 0.020026857361216881 0.0060031656192772896 -0.0040474918425851061 0.0053877401171772048 0.00094448849734851291 0.0024641969546150538 -0.002821213823108452 -0.0059721712668154708 -0.0022954708864016352 0.0047956353690931939 -0.0072076245774428341 0.0002329694513448638 0.0075563092609806934 -0.023916130409363374 -0.00045114605017867277 0.0029144658524774382 0.0054302590993465074 -0.02609749861264346 -0.006703013733163783 -0.0057666148880923078 -0.0072828761215324922 0.045113907275546337 0.0044203033718092947 0.029885410751691436 -0.0083321244940137758 -0.0053299079578991273 -0.00026572621098393078 -0.0075174473595849009 -0.0032073024922641292 0.0021636028979463771 -0.013730561284559751 -0.025860524047659234 0.0082161661781430789 -0.011819530918211012 0.017317492963521974 0.017668198391917543 0.023750750783760759 -0.001695470526944285 0.00056569708109022263 -0.020075706759741244 0.033356860889765957 -0.0072625720819105167 -0.01317585080509456 -0.016449353568837331 0.0022205404077472678 -0.021744393190397258 -0.011313651274269271 0.016798774491064636 -0.02874613546316088 0.036440201659235907 -0.0011040589591694216 -0.00085424451673247711 -0.021024848662191623
leaf_weight=81.417254388332367 2093.3525763601065 949.08511716127396 230.45827093720436 4961.7629843056202 1043.0976795405149 171.08054281771183 72.567882671952248 5141.5382887423038 161.69758608937263 154.38172125816345 5801.4496976286173 5612.5315024107695 2977.6224211007357 3355.4188246577978 2257.3968918174505 1371.4104210883379 676.17461587488651 822.45905803143978 454.62877102196217 959.34037601947784 2702.1682925075293 7069.3909987360239 139.66200418770313 247.78133057057858 9214.2286261171103 3000.8099269270897 233.24200186133385 1239.5238959789276 293.96845375001431 147.42920427024364 11.379437103867529 30.367518946528435 31.372213825583458 669.02013866603374 1521.0028506368399 3267.9665031284094 499.26344603300095 3985.2748496234417 16422.970796391368 126.86092168092728 100.50775100290775 63.120487570762634 438.69963079690933 166.04960125684738 90.18240912258625 28.631544277071953 4512.6351762115955 3117.7255906611681 111.02384653687477 34.733136922121048 274.0488646030426 1463.3885487467051 157.97041614353657 871.28387893736362 97.096675619482994 1432.0961945801973 47.511982336640358 12.285383239388464 11.755838543176649 1237.8743350803852 769.50628365576267 410.30406388640404
leaf_count=280 6511 3056 685 14313 3405 621 257 15805 421 350 15712 17489 8127 9688 6387 4151 2146 2487 1257 3049 7856 18757 538 739 25965 8203 911 3910 915 481 17 89 60 2173 4735 9752 1629 12220 46599 428 397 169 1474 388 211 61 13527 9151 417 61 899 5108 561 2489 366 4888 117 49 20 3676 2242 1561
internal_value=-4.81738e-07 -0.00368063 -0.00278417 0.00151154 -0.00222906 0.00183507 0.00242424 0.000750436 0.00267111 -0.00195018 0.00365671 -0.00418571 0.0035975 -0.00234948 0.00560525 0.000132813 -0.000593255 0.00179726 -0.00357123 0.000424966 0.00104723 0.00632385 -0.00322272 -0.008429 0.00217139 0.00376831 -0.0105733 -0.00489961 -0.0102873 -0.0188108 -0.00759952 -0.0111733 -0.00168163 -0.00182603 -0.00177054 -0.00265583 -0.011102 -0.00217969 0.00255197 0.00204177 -0.0101105 -0.0123406 -0.00112272 0.0032308 -0.00208335 -0.00964028 -0.00131608 -0.00155122 -0.00549718 -0.0106765 -0.00269352 -0.0122913 -0.00477824 0.000775577 -0.00795263 -0.0091914 -0.0105619 0.00744156 -0.00414366 -0.00376898 -0.00235388 -0.0192714
internal_weight=105651 30766.8 25880.7 74884.2 24057.8 67994.9 50512.1 20815.8 12164.4 8651.34 10763.2 10954.6 29696.3 8496.96 10168.9 17482.8 13103.3 5226.98 1403.71 17006 14808.8 9326.79 9519.42 4886.09 10585.6 3823.27 1435.15 1401.22 476.805 380.671 1054.48 2523.74 6889.29 6857.92 4223.17 8880.5 638.925 7876.27 19527.5 16549.8 1822.86 2275.96 6188.9 1118.75 5070.15 467.331 4602.82 7103 2362.35 1835.29 308.782 1526.51 2251.32 952.701 773.271 1722.35 1491.89 59.7974 305.724 2197.21 842.074 440.672
internal_count=310006 95359 79244 214647 73108 193984 142996 60199 34356 25843 30025 34222 82797 25493 27643 50988 38886 15003 4313 49432 42707 25144 29408 16115 30116 10690 4814 4331 1556 1392 3422 8626 20663 20603 12591 27241 2167 23883 55154 47027 6136 7887 18430 3157 15273 1535 13738 21371 7489 6237 960 5277 7072 2769 2512 5739 5054 166 935 6725 2499 1650
is_linear=0
shrinkage=0.02


Tree=11
num_leaves=63
num_cat=0
split_feature=8 19 16 17 11 11 9 15 19 14 7 8 16 19 9 18 16 17 8 19 19 8 0 12 14 8 9 16 9 19 16 9 11 12 9 18 8 16 19 15 19 12 8 17 9 14 9 7 19 8 15 8 11 19 17 16 19 8 9 12 12 14
split_gain=1412.2 315.427 292.524 253.498 240.214 192.992 175.03 167.229 148.143 148.007 120.742 120.465 129.849 116.496 166.141 99.8345 97.5762 124.954 124.875 94.3216 98.0485 92.7791 91.7547 89.6521 88.5589 86.0571 98.7802 92.0498 85.644 83.9612 83.6489 83.4454 106.852 81.4755 81.4307 80.5959 80.4306 79.718 77.5763 72.8041 66.8979 64.815 63.646 73.1209 70.9298 62.9481 70.6172 83.4434 62.3249 61.8474 61.5134 61.3764 59.5914 59.477 59.2476 82.509 57.5676 55.5101 53.9237 52.8354 52.1334 93.3491
threshold=0.54618728160858165 -1.0000000180025095e-35 8.514773368835451 1.0169084072113039 0.17823930084705356 0.91157159209251415 20.024600028991703 37.386474609375007 6.6042037241445978e-28 0.90384432673454296 -0.63760671019554127 1.1473164558410647 16.746406555175785 2.5940465524807505e-35 73.440742492675795 -0.034750001505017274 3.6545562744140629 1.0641096234321596 0.22720771282911303 -5.3655795427978467e-21 -1.1043160005622885e-32 1.1130643486976626 71.95294570922853 0.045727353543043144 -0.25790396332740778 0.63148620724678051 32.409236907958991 12.758656501770021 21.329491615295414 1.5892764438353949e-32 8.608182907104494 22.873120307922367 0.58449164032936107 0.00020553676586132499 38.565336227416999 -0.020635294727981087 0.80129566788673412 23.674872398376468 -1.594630081192677e-12 68.330101013183608 1.0750066696254094e-23 -2.0129411220550533 0.40186893939971929 0.15897183120250705 34.248838424682624 4.4660449028015146 75.095432281494155 1.482834041118622 -7.32691715594558e-15 0.40186893939971929 59.502065658569343 0.2797930389642716 0.90002018213272106 5.2352196911614493e-15 -0.1230289191007614 4.1680421829223642 4.6108136056680782e-27 0.42857824265956884 54.549543380737312 -0.00080002940376289178 0.36997058987617498 -1.0244271159172056
decision_type=2 2 2 2 2 2 2 2 2 2 2 2 2 2 2 2 2 2 2 2 2 2 2 2 2 2 2 2 2 2 2 2 2 2 2 2 2 2 2 2 2 2 2 2 2 2 2 2 2 2 2 2 2 2 2 2 2 2 2 2 2 2
left_child=2 25 6 4 11 13 35 19 10 16 30 12 24 21 -15 52 17 -9 -18 33 -21 -6 -17 42 -3 26 -2 -27 -14 -13 -4 40 34 38 39 54 -29 41 -8 -33 -10 -32 43 -12 -44 46 53 -48 58 -36 57 -22 -11 -5 55 -1 -57 -37 -25 -39 -38 -62
right_child=1 3 8 45 5 -7 7 9 31 15 23 29 28 14 -16 22 18 -19 -20 20 51 -23 -24 48 -26 27 -28 36 -30 -31 37 32 -34 -35 49 50 60 59 -40 -41 -42 -43 44 -45 -46 -47 47 -49 -50 -51 -52 -53 -54 -55 -56 56 -58 -59 -60 -61 61 -63
leaf_value=-0.015962916486556195 -0.016334105640570824 -0.0053424884094480755 0.017330864729724012 -0.013079083812121074 0.0015251694329667161 -0.0070687387450166618 -0.0009086691577302635 -0.00060401896617107099 0.018044749961773746 -0.0044187721537650385 0.010947612772786528 -0.016182919383716226 -0.014583180988662067 -0.0034860513892116785 0.015056115110876003 -0.001424702685514599 0.0056881274598876456 0.013597567389279674 0.0018598871295905162 -0.0075324775401146302 0.0013061846211605541 -0.0037991048904692289 0.0094833439243231839 0.0038418389729554369 -0.016848972862470616 -0.013391062758531722 -0.0034339819481091017 0.00054857270424934308 0.0044274207359470252 0.00061572990741816803 -0.013811960229142375 0.00014403569710411403 -0.0035553829784507698 -0.0159791361230056 0.0099455831817171578 -0.0066240595766190779 -0.013839594450833144 0.003779547916287655 0.0095834534697093014 -0.023751706426852013 -0.016062069092597556 0.00024375007185124315 -0.0023020134388095459 0.005907589681102568 0.0049428094477111236 -0.017422416655002652 0.008649523505545785 -0.0082367058723510876 0.0023229423186607958 0.0016337000738644927 0.014646034208094195 -0.0028497765673603163 -0.015533823680989585 0.0024931926676096524 -0.0034075460526984485 0.02769415775061565 -0.0045416920625392897 -0.01691565512684786 -0.016462093089378974 0.037198985257812386 0.032682341968374051 -0.0076042402734081303
leaf_weight=32.976106077432632 274.03464207053185 3683.2091234475374 117.18351966142654 845.46037159860134 9568.8802321255207 1924.0222875922918 507.61855565011501 7646.9046783745289 26.136013731360435 620.51391734182835 1495.3518572300673 639.09663037955761 107.44368143379688 5168.0390585958958 200.80307877063751 3637.0113833099604 3907.9265863746405 256.11977016925812 26658.267219886184 1259.7538477182388 2166.6413961797953 1516.6465249061584 337.04162755608559 82.937006175518036 288.50866597890854 1739.4702954888344 1777.6849765330553 446.11176840960979 804.91709820926189 146.24543941020966 137.71340315043926 907.56999044120312 1446.9829196333885 79.854245230555534 816.95674507319927 1029.929425790906 477.98052698373795 38.116866558790207 633.85687175393105 54.037122666835785 191.91547857224941 2787.0120318382978 606.72286266088486 5006.2928966134787 4955.8599303364754 359.70376944541931 185.33491939306259 317.72078660130501 1510.5665387958288 637.51123632490635 46.699217602610588 4132.4956465363503 280.00118812918663 110.98723243176937 284.1909786015749 90.158861622214317 29.380765989422798 263.21184848248959 141.73774914443493 37.578370213508606 27.742711886763573 134.76034592092037
leaf_count=116 986 11720 267 2933 27611 6272 1507 22542 61 1940 3728 2308 373 15901 492 10850 10553 633 75985 4049 6226 4718 868 230 1029 6103 5525 1329 2252 432 478 2651 4416 277 2079 3318 1679 105 1630 201 675 8135 1815 13389 13500 1323 501 1053 4267 1826 112 12579 990 326 874 177 90 953 495 60 48 445
internal_value=-5.23157e-07 -0.0036097 0.00148099 -0.00273 -0.00218544 -0.00107522 0.000700856 0.000911263 0.00348352 0.00142113 0.00430862 -0.00578439 -0.00461535 -0.000374397 -0.00279255 -0.00186207 0.00183715 -0.000143777 0.00234933 -0.00160571 -0.00243895 0.000796738 -0.000499585 0.00511173 -0.00617833 -0.00827474 -0.00515697 -0.0105382 0.00218865 -0.0130547 0.000753808 6.33018e-05 0.000742749 0.00355128 0.00331689 -0.00547247 -0.0059713 0.00010638 0.00491757 -0.00119878 -0.011974 -0.000418076 0.00572311 0.00706677 0.0041526 -0.00992848 -0.00808155 -0.00201551 0.000861142 0.00630238 -0.00790449 -0.0014203 -0.00787482 -0.0112721 0.00198908 0.0120449 0.0197711 -0.00871886 -0.00896705 0.0203704 -0.0105125 -0.000726468
internal_weight=105644 30744.8 74898.7 25867 24047.8 18378.4 53900.6 52124 20998.2 43343.8 16917.1 5669.42 4884.08 16454.4 5368.84 4874.57 38469.2 7903.02 30566.2 8780.22 7558.89 11085.5 3974.05 13799.5 3971.72 4877.79 2051.72 2826.07 912.361 785.342 3117.6 4081.11 3863.06 1221.33 2416.08 1776.55 1086.6 3000.42 1141.48 961.607 218.051 2924.73 12064.2 6501.64 5562.58 1819.21 1459.5 503.056 1735.24 1454.47 1339.84 6299.14 900.515 956.448 436.707 152.516 119.54 1293.14 224.675 75.6952 640.484 162.503
internal_count=310006 95359 214647 79244 73108 54994 156269 150629 58378 124361 46469 18114 15374 48722 16393 14648 109713 23175 86538 26268 22854 32329 11718 37424 12749 16115 6511 9604 2625 2740 9045 11909 11173 3414 6757 5640 3501 8778 3137 2852 736 8613 32432 17117 15315 6136 4813 1554 4992 3905 4383 18805 2930 3259 1257 383 267 4271 725 165 2172 493
is_linear=0
shrinkage=0.02


Tree=12
num_leaves=63
num_cat=0
split_feature=8 16 1 16 17 17 9 19 11 10 11 8 11 8 19 1 15 15 8 10 7 7 19 19 8 9 9 18 15 0 18 17 11 9 17 0 11 8 19 11 6 15 15 17 18 0 19 14 19 19 15 19 19 18 14 11 18 15 16 16 17 15
split_gain=1359.22 315.768 274.802 263.914 237.718 234.251 209.457 194.052 156.75 170.598 153.609 147.937 140.791 135.401 149.845 113.142 104.098 103.016 107.803 133.214 133.451 100.431 97.1639 96.5115 95.0855 94.6635 88.2445 85.7781 84.7371 80.3599 75.8462 88.6891 70.4502 86.7289 78.0223 70.1135 65.164 64.5204 59.6585 59.0238 58.4561 58.7624 58.1904 92.6156 106.641 71.3583 69.6877 60.4178 57.6358 67.1121 63.6984 57.3043 54.359 82.777 54.1289 53.754 51.2828 50.5776 55.5096 49.6273 46.8908 62.0821
threshold=0.52150747179985057 11.086057662963869 3.8202943801879887 12.531830310821535 0.092362400144338622 0.2959918230772019 20.024600028991703 -5.2398238117065676e-23 0.73953586816787731 4.1657457351684579 0.15714327245950702 0.91094449162483226 0.18153275549411776 0.60908386111259472 -1.0000000180025095e-35 2.4697203636169438 78.347080230712905 13.935641288757326 0.42463377118110662 9.3830871582031268 0.34884248673915869 -0.23279752582311627 1.8650712586474036e-15 -1.0026560137710303e-09 0.38523191213607794 22.35800933837891 45.834251403808601 -0.1874117627739906 47.255065917968757 44.445671081542976 -4.1511764720780768e-05 1.0169084072113039 0.33622191846370703 56.604862213134773 0.61628994345664989 43.284599304199226 -0.12316977605223654 1.1130643486976626 -3.8631925726713595e-33 -0.010461275931447743 -0.47168834507465357 30.646321296691898 32.973297119140632 0.1414296552538872 -0.0028345588361844416 61.535678863525398 2.0502009812073399e-10 -1.1378663182258604 6.3755509254132341e-14 2.472953982365109e-16 59.294939041137702 -1.0026560137710303e-09 1.0000000180025095e-35 1.0629411935806277 -1.5153109431266782 0.10535263642668725 0.00051242645713500689 55.034055709838874 9.7933392524719256 10.107789516448976 0.69974884390831005 21.080386161804203
decision_type=2 2 2 2 2 2 2 2 2 2 2 2 2 2 2 2 2 2 2 2 2 2 2 2 2 2 2 2 2 2 2 2 2 2 2 2 2 2 2 2 2 2 2 2 2 2 2 2 2 2 2 2 2 2 2 2 2 2 2 2 2 2
left_child=1 6 3 4 22 10 42 -4 9 26 -5 36 -13 27 37 25 48 39 19 20 -19 -17 40 -20 54 -12 -9 -6 -16 -25 57 59 51 34 -34 -29 -11 -15 -33 -8 56 -42 46 -44 47 -46 -1 -45 49 -7 -50 -26 -35 -54 55 -3 -2 58 -10 -32 61 -56
right_child=2 24 7 5 13 16 17 8 30 11 15 12 -14 14 28 21 -18 18 23 -21 -22 -23 -24 29 32 -27 -28 35 -30 -31 31 38 33 52 -36 -37 -38 -39 -40 -41 41 -43 43 44 45 -47 -48 -49 50 -51 -52 -53 53 -55 60 -57 -58 -59 -60 -61 -62 -63
leaf_value=0.0026809525459839897 -0.0049151836242165379 0.016856942372796821 -0.015452826018800908 -0.0047921827211423471 0.0060599207371518863 -0.0010862457276438801 0.026256992618672724 -0.020310277160712528 -0.0038169963735734903 -0.013098588792294488 -0.01367259845041726 -0.01049723642272519 -0.0023317704063588714 -0.011700532024613571 8.6355360840333449e-06 0.0076749032669802247 -0.010408975815669033 0.0021967778666161109 -0.013607372906950218 0.013664939615774281 -0.0005518853968448274 -0.0026586616759171921 -0.023907623295425468 -0.0021065230412573555 -0.022247738702367428 0.011613087480638011 -0.0040065087415552033 -0.0047100857757877259 -0.0051578686725935593 0.0011449376962139738 -0.0087823635185388001 0.0039623655404059767 0.010690159010206628 0.0033644896248186396 0.0011272333413465195 0.00011939967429513392 0.0017583116266425816 0.015537977755803619 -0.012662132043040435 -0.01689500912503366 -0.015632497694043349 -0.0073602621724470386 -0.013076269631048661 -0.028887882180398953 -0.007042118734956671 0.021595743849214408 -0.020377352847896248 0.019073535353922855 -0.0053738942518270763 -0.014205997193701178 0.016008551091537131 0.00070054864114417622 -0.011530952402792949 0.019791410134354984 0.0037253538007995996 -0.011302052052912109 0.015399994721269928 -0.019040449523962225 -0.01416669774015674 0.0013637698686540659 0.0019179429149187195 0.01037264061658574
leaf_weight=515.25440552830696 438.62619529664516 35.954706579446793 794.09270517528057 570.71949794888496 700.24275159835815 3762.8790981918573 13.702650457620619 347.53899013996124 337.40899620950222 123.9536210000515 61.865888819098473 1287.631654471159 2455.1063246279955 1199.8950098156929 2052.1615711450577 782.22712208330631 535.88749349117279 38458.600420102477 212.79359723627567 374.65831476449966 8655.5951479822397 724.78726200759411 180.01166798174381 4760.5946191251278 44.66600726544857 1386.5113230794668 214.90575850009918 1733.7221578806639 3330.8218357414007 8414.858873128891 283.09821018576622 97.041093677282333 1240.8366961032152 873.39236007630825 470.73669692873955 3923.7960305809975 2496.1311984062195 35.823392257094383 783.33763752877712 169.72444912791252 562.21882812678814 882.90094591677189 623.56964047253132 11.628047570586203 763.10281544923782 36.466686740517616 58.366658002138138 108.8847109079361 86.488025486469269 162.70223833620548 156.69110590219498 1705.0589836537838 229.26703624427319 39.574469238519669 726.39013183116913 110.31535564363003 56.055959418416023 364.74221096932888 537.50129100680351 604.7716676145792 441.6999571621418 2483.3432166129351
leaf_count=1476 1395 85 2863 1791 1921 11259 28 1295 1069 432 209 4368 7503 4123 6081 2080 1791 109078 726 914 25474 2169 696 14280 166 3441 675 5411 10508 24250 942 286 3121 2419 1349 11546 7270 92 2755 592 1985 2858 2160 46 2461 82 216 249 271 558 379 4930 760 90 1988 366 140 1358 1890 1798 1247 6245
internal_value=-5.60678e-07 0.00156427 -0.00328969 -0.00207135 -0.00364213 0.000809669 0.00107986 -0.00593904 -0.00517848 -0.00352269 0.00470699 -0.00258941 -0.00514097 -0.00262776 -0.00463006 0.00654139 -0.00211135 0.0012943 0.00133939 0.00178627 0.00169181 0.00270505 -0.00985161 -0.000245691 0.00520704 0.010533 -0.0140807 -0.000543283 -0.00318824 -2.98899e-05 -0.00899068 -0.00633153 0.00327449 0.0052118 0.00806005 -0.00136058 0.00105545 -0.0109109 -0.0108297 -0.0136714 -0.00854723 -0.0105785 -0.00510439 -0.00712557 -0.00309258 -0.00573601 0.000334741 0.0144458 -0.00104471 -0.00163002 0.00840376 0.000114738 0.000943841 -0.00692018 0.00754965 -0.00438028 -0.00261313 -0.0127837 -0.0101753 -0.00187134 0.00802754 0.0088683
internal_weight=105633 71579 34054.3 23327 15096.3 8230.76 63177.8 10727.3 9933.17 6925.27 3526.11 6362.82 3742.74 12976.5 6618.7 2955.39 4704.65 61060.5 60877.1 47488.9 47114.2 1507.01 2119.81 13388.2 8401.24 1448.38 562.445 6357.76 5382.98 13175.5 3007.9 1768.25 4603.53 2853.81 1711.57 5657.52 2620.08 1235.72 880.379 183.427 1939.8 1445.12 2117.27 1543.65 920.082 799.57 573.621 120.513 4168.76 3925.58 243.179 1749.72 1142.23 268.842 3797.7 146.27 494.682 1239.65 874.91 887.87 3651.43 3209.73
internal_count=310006 204798 105208 70704 46756 23948 182032 34504 31641 21543 9690 19573 11871 39682 20804 7899 14258 175342 174722 135466 134552 4249 7074 39256 22766 3650 1970 18878 16589 38530 10098 5781 12835 7739 4470 16957 7702 4215 3041 620 6378 4843 6690 4998 2838 2543 1692 295 12467 11817 650 5096 3269 850 9931 451 1535 4317 2959 2740 9480 8233
is_linear=0
shrinkage=0.02


Tree=13
num_leaves=63
num_cat=0
split_feature=8 17 16 13 9 16 8 8 17 11 8 8 20 16 0 11 2 18 20 16 17 13 18 14 18 7 17 13 9 0 17 17 7 11 16 11 9 1 16 16 18 7 17 1 10 17 18 16 16 8 17 17 16 11 18 14 17 17 18 1 13 10
split_gain=1306.64 273.131 277.413 272.136 257.952 253.668 212.96 196.086 278.298 133.705 129.971 128.726 124.202 123.799 115.86 113.689 110.78 154.604 131.218 126.854 110.61 104.864 98.2798 93.0552 91.4716 91.1743 103.103 87.5961 86.9785 83.603 82.8712 81.7131 89.8994 80.9801 84.4627 79.9723 114.018 75.5248 76.7084 75.1419 95.2619 75.0673 74.4234 74.2467 68.3832 68.1903 89.359 91.5687 71.7217 88.5243 67.3967 66.3131 65.7839 65.2295 64.7024 62.7029 103.482 62.6203 61.4291 61.3007 60.6458 57.3262
threshold=0.56305569410324108 1.0169084072113039 13.711561203002931 2.0815101803440422e-34 20.024600028991703 8.514773368835451 0.88083016872406017 1.1130643486976626 0.29910030961036688 0.15325364470481875 0.31015805900096899 0.40186893939971929 1.0000000180025095e-35 3.8123512268066411 57.141988754272468 0.33978021144866949 0.41981013119220739 17.662235260009769 1.0000000180025095e-35 3.6545562744140629 0.3839001208543778 5.7434203961163934e-25 0.0086433822289109247 -1.3040260076522825 -59.845588684082024 0.34031173586845404 0.82189151644706737 3.1367212707086706e-26 31.16049957275391 70.003948211669936 0.12651205062866214 0.17828873544931415 -0.73922005295753468 0.33622191846370703 8.5649309158325213 0.24575969576835635 60.561740875244148 10.254009246826174 48.763177871704109 11.086057662963869 -1.3274412155151365 0.17672029137611392 0.89248743653297435 13.64144277572632 8.8684620857238787 -0.1230289191007614 -0.017955293878912922 4.1680421829223642 7.1199898719787607 0.29336957633495336 0.35830037295818334 1.0065698623657229 8.0024623870849627 0.24250615388154986 -2.8814411163330074 0.10863807052373887 0.79254752397537243 0.1184152700006962 -0.0028345588361844416 3.4397985935211186 2.2168427987445632e-35 9.7906365394592303
decision_type=2 2 2 2 2 2 2 2 2 2 2 2 2 2 2 2 2 2 2 2 2 2 2 2 2 2 2 2 2 2 2 2 2 2 2 2 2 2 2 2 2 2 2 2 2 2 2 2 2 2 2 2 2 2 2 2 2 2 2 2 2 2
left_child=4 2 3 6 27 10 15 8 9 44 13 31 35 23 -11 61 17 19 24 -12 -17 33 54 -6 -18 60 -27 45 -8 -20 -5 32 -7 -13 -35 -9 -37 38 -14 40 -33 -25 -24 -3 -4 46 47 -1 57 52 -51 -39 -50 -34 -10 -23 -57 -47 -59 -30 -15 -2
right_child=1 43 7 30 5 11 28 12 22 14 16 21 37 25 -16 20 18 -19 29 -21 -22 55 42 41 -26 26 -28 -29 59 -31 -32 39 53 34 -36 36 -38 51 -40 -41 -42 -43 -44 -45 -46 48 -48 -49 49 50 -52 -53 -54 -55 -56 56 -58 58 -60 -61 -62 -63
leaf_value=-0.014641307543067066 -0.005901033432227437 -0.0091911408543676066 -0.0072720629242589594 -0.025349272546970739 -0.0196655969015768 -0.00030962107833781003 -0.019503766298045924 -0.01431683005681063 0.0037907829311397052 0.0090778325032798181 -0.0070218383604028203 -0.00020059064254029956 -0.0018329732993421564 0.0032363643654695303 0.00050955588213018853 0.0024192261614712548 -0.018464546427802889 -0.015495965132702263 0.0020192443524639512 -0.00040672259274287365 -0.0030681586666816058 -0.017257044419207505 0.0015853231384945694 0.0012404423862678083 -0.00042796237616696085 -0.0034370508158713402 0.0053187997774407384 -0.015606755976141574 -0.0027547586820842805 0.0078021204424802331 -0.011704163743116397 -0.0083275291856545683 0.015814815233211515 0.022104110069842177 0.0032323871341940137 -0.0010282636846793655 -0.019476540472640913 -0.013870029209005569 0.0094017863189899062 0.0063967816763947517 0.0031326231669678364 -0.0037060993999978439 -0.0088728548128182844 -0.024218792383734988 0.005131146757284241 -0.014927363156855705 -0.0084754088328727172 0.023844017484779365 0.025649793696914398 -0.007463864034630242 0.0050050607969987079 0.039038593195201234 0.00032747165853476315 0.0077437161984199318 -0.0078217797870476415 0.011447569426455736 -0.02471375535963349 0.0090047733678935531 -0.0077324267331338979 -0.010604761758707653 0.0087770686704424557 0.004280226773465917
leaf_weight=31.171715602278709 4778.2036960273981 2297.3489007353783 478.18836459517479 255.17575013637543 98.193392410874367 433.80738309025764 320.18971098959446 652.60163147747517 220.57917223870754 2259.4590912908316 1288.4394875913858 3605.4339285045862 1117.4564060717821 12609.597672894597 875.99687208235264 2052.5523895174265 113.90684503316879 304.11216801404953 7370.8718894720078 11591.339657992125 5171.1669344753027 178.48901677131653 1895.4120641499758 4716.6871385723352 8917.7183459401131 1663.2748504579067 795.0919094979763 275.61715966463089 570.55188763141632 1156.9463042467833 588.94601488113403 310.46206441521645 523.7555171251297 96.19655553996563 6848.5606796592474 638.05034202337265 169.63224337995052 224.53381091356277 310.68079949915409 3074.0844787657261 4431.1035806387663 1658.7467188835144 317.81938314437866 139.49408133327961 283.04957143962383 393.98078909516335 100.20208109915257 119.65948252379894 77.55119314789772 589.0586816817522 245.73040203750134 9.8931001126766187 87.155733719468117 1702.4654206931591 1477.2343744635582 102.94382067024708 45.710029348731041 108.19832327961922 463.30531169474125 1315.0355222970247 843.01686327159405 231.95128521323204
leaf_count=109 15318 7758 1549 1021 361 1274 1198 2318 624 5827 4086 10564 3418 35219 2540 5889 409 1048 20988 34088 15988 637 5527 13594 26246 5061 2180 989 1758 3059 2028 988 1222 204 19091 1927 630 784 823 8140 12328 5062 1047 553 788 1394 332 248 162 1901 685 17 255 4411 4786 260 175 285 1512 4466 2200 657
